{"learner":{"attributes":{"scikit_learn":"{\"_estimator_type\": \"classifier\"}"},"feature_names":["home_off_epa_L3","home_off_epa_L5","home_off_epa_L10","home_off_epa_season","home_off_ypp_L3","home_off_ypp_L5","home_off_ypp_L10","home_off_ypp_season","home_off_pass_epa_L3","home_off_pass_epa_L5","home_off_pass_epa_L10","home_off_pass_epa_season","home_off_rush_epa_L3","home_off_rush_epa_L5","home_off_rush_epa_L10","home_off_rush_epa_season","home_off_edsr_L3","home_off_edsr_L5","home_off_edsr_L10","home_off_edsr_season","home_off_rz_epa_L3","home_off_rz_epa_L5","home_off_rz_epa_L10","home_off_rz_epa_season","home_def_epa_L3","home_def_epa_L5","home_def_epa_L10","home_def_epa_season","home_def_ypp_L3","home_def_ypp_L5","home_def_ypp_L10","home_def_ypp_season","home_def_pass_epa_L3","home_def_pass_epa_L5","home_def_pass_epa_L10","home_def_pass_epa_season","home_def_rush_epa_L3","home_def_rush_epa_L5","home_def_rush_epa_L10","home_def_rush_epa_season","home_def_edsr_L3","home_def_edsr_L5","home_def_edsr_L10","home_def_edsr_season","home_su_win_L3","home_su_win_L5","home_su_win_L10","home_su_win_season","away_off_epa_L3","away_off_epa_L5","away_off_epa_L10","away_off_epa_season","away_off_ypp_L3","away_off_ypp_L5","away_off_ypp_L10","away_off_ypp_season","away_off_pass_epa_L3","away_off_pass_epa_L5","away_off_pass_epa_L10","away_off_pass_epa_season","away_off_rush_epa_L3","away_off_rush_epa_L5","away_off_rush_epa_L10","away_off_rush_epa_season","away_off_edsr_L3","away_off_edsr_L5","away_off_edsr_L10","away_off_edsr_season","away_off_rz_epa_L3","away_off_rz_epa_L5","away_off_rz_epa_L10","away_off_rz_epa_season","away_def_epa_L3","away_def_epa_L5","away_def_epa_L10","away_def_epa_season","away_def_ypp_L3","away_def_ypp_L5","away_def_ypp_L10","away_def_ypp_season","away_def_pass_epa_L3","away_def_pass_epa_L5","away_def_pass_epa_L10","away_def_pass_epa_season","away_def_rush_epa_L3","away_def_rush_epa_L5","away_def_rush_epa_L10","away_def_rush_epa_season","away_def_edsr_L3","away_def_edsr_L5","away_def_edsr_L10","away_def_edsr_season","away_su_win_L3","away_su_win_L5","away_su_win_L10","away_su_win_season","home_sos_off_epa","home_sos_def_epa","away_sos_off_epa","away_sos_def_epa","diff_off_epa_L3","diff_off_epa_L5","diff_off_epa_L10","diff_off_epa_season","diff_off_ypp_L3","diff_off_ypp_L5","diff_off_ypp_L10","diff_off_ypp_season","diff_off_pass_epa_L3","diff_off_pass_epa_L5","diff_off_pass_epa_L10","diff_off_pass_epa_season","diff_off_rush_epa_L3","diff_off_rush_epa_L5","diff_off_rush_epa_L10","diff_off_rush_epa_season","diff_off_edsr_L3","diff_off_edsr_L5","diff_off_edsr_L10","diff_off_edsr_season","diff_off_sack_rate_L3","diff_off_sack_rate_L5","diff_off_sack_rate_L10","diff_off_sack_rate_season","diff_def_sack_rate_L3","diff_def_sack_rate_L5","diff_def_sack_rate_L10","diff_def_sack_rate_season","diff_turnovers_lost_L3","diff_turnovers_lost_L5","diff_turnovers_lost_L10","diff_turnovers_lost_season","diff_turnovers_gained_L3","diff_turnovers_gained_L5","diff_turnovers_gained_L10","diff_turnovers_gained_season","diff_off_rz_epa_L3","diff_off_rz_epa_L5","diff_off_rz_epa_L10","diff_off_rz_epa_season","diff_def_epa_L3","diff_def_epa_L5","diff_def_epa_L10","diff_def_epa_season","diff_def_ypp_L3","diff_def_ypp_L5","diff_def_ypp_L10","diff_def_ypp_season","diff_def_pass_epa_L3","diff_def_pass_epa_L5","diff_def_pass_epa_L10","diff_def_pass_epa_season","diff_def_rush_epa_L3","diff_def_rush_epa_L5","diff_def_rush_epa_L10","diff_def_rush_epa_season","diff_def_edsr_L3","diff_def_edsr_L5","diff_def_edsr_L10","diff_def_edsr_season","diff_su_win_L3","diff_su_win_L5","diff_su_win_L10","diff_su_win_season","diff_points_scored_L3","diff_points_scored_L5","diff_points_scored_L10","diff_points_scored_season","diff_points_allowed_L3","diff_points_allowed_L5","diff_points_allowed_L10","diff_points_allowed_season"],"feature_types":["float","float","float","float","float","float","float","float","float","float","float","float","float","float","float","float","float","float","float","float","float","float","float","float","float","float","float","float","float","float","float","float","float","float","float","float","float","float","float","float","float","float","float","float","float","float","float","float","float","float","float","float","float","float","float","float","float","float","float","float","float","float","float","float","float","float","float","float","float","float","float","float","float","float","float","float","float","float","float","float","float","float","float","float","float","float","float","float","float","float","float","float","float","float","float","float","float","float","float","float","float","float","float","float","float","float","float","float","float","float","float","float","float","float","float","float","float","float","float","float","float","float","float","float","float","float","float","float","float","float","float","float","float","float","float","float","float","float","float","float","float","float","float","float","float","float","float","float","float","float","float","float","float","float","float","float","float","float","float","float","float","float","float","float","float","float","float","float","float","float","float","float"],"gradient_booster":{"model":{"cats":{"enc":[],"feature_segments":[],"sorted_idx":[]},"gbtree_model_param":{"num_parallel_tree":"1","num_trees":"2271"},"iteration_indptr":[0,1,2,3,4,5,6,7,8,9,10,11,12,13,14,15,16,17,18,19,20,21,22,23,24,25,26,27,28,29,30,31,32,33,34,35,36,37,38,39,40,41,42,43,44,45,46,47,48,49,50,51,52,53,54,55,56,57,58,59,60,61,62,63,64,65,66,67,68,69,70,71,72,73,74,75,76,77,78,79,80,81,82,83,84,85,86,87,88,89,90,91,92,93,94,95,96,97,98,99,100,101,102,103,104,105,106,107,108,109,110,111,112,113,114,115,116,117,118,119,120,121,122,123,124,125,126,127,128,129,130,131,132,133,134,135,136,137,138,139,140,141,142,143,144,145,146,147,148,149,150,151,152,153,154,155,156,157,158,159,160,161,162,163,164,165,166,167,168,169,170,171,172,173,174,175,176,177,178,179,180,181,182,183,184,185,186,187,188,189,190,191,192,193,194,195,196,197,198,199,200,201,202,203,204,205,206,207,208,209,210,211,212,213,214,215,216,217,218,219,220,221,222,223,224,225,226,227,228,229,230,231,232,233,234,235,236,237,238,239,240,241,242,243,244,245,246,247,248,249,250,251,252,253,254,255,256,257,258,259,260,261,262,263,264,265,266,267,268,269,270,271,272,273,274,275,276,277,278,279,280,281,282,283,284,285,286,287,288,289,290,291,292,293,294,295,296,297,298,299,300,301,302,303,304,305,306,307,308,309,310,311,312,313,314,315,316,317,318,319,320,321,322,323,324,325,326,327,328,329,330,331,332,333,334,335,336,337,338,339,340,341,342,343,344,345,346,347,348,349,350,351,352,353,354,355,356,357,358,359,360,361,362,363,364,365,366,367,368,369,370,371,372,373,374,375,376,377,378,379,380,381,382,383,384,385,386,387,388,389,390,391,392,393,394,395,396,397,398,399,400,401,402,403,404,405,406,407,408,409,410,411,412,413,414,415,416,417,418,419,420,421,422,423,424,425,426,427,428,429,430,431,432,433,434,435,436,437,438,439,440,441,442,443,444,445,446,447,448,449,450,451,452,453,454,455,456,457,458,459,460,461,462,463,464,465,466,467,468,469,470,471,472,473,474,475,476,477,478,479,480,481,482,483,484,485,486,487,488,489,490,491,492,493,494,495,496,497,498,499,500,501,502,503,504,505,506,507,508,509,510,511,512,513,514,515,516,517,518,519,520,521,522,523,524,525,526,527,528,529,530,531,532,533,534,535,536,537,538,539,540,541,542,543,544,545,546,547,548,549,550,551,552,553,554,555,556,557,558,559,560,561,562,563,564,565,566,567,568,569,570,571,572,573,574,575,576,577,578,579,580,581,582,583,584,585,586,587,588,589,590,591,592,593,594,595,596,597,598,599,600,601,602,603,604,605,606,607,608,609,610,611,612,613,614,615,616,617,618,619,620,621,622,623,624,625,626,627,628,629,630,631,632,633,634,635,636,637,638,639,640,641,642,643,644,645,646,647,648,649,650,651,652,653,654,655,656,657,658,659,660,661,662,663,664,665,666,667,668,669,670,671,672,673,674,675,676,677,678,679,680,681,682,683,684,685,686,687,688,689,690,691,692,693,694,695,696,697,698,699,700,701,702,703,704,705,706,707,708,709,710,711,712,713,714,715,716,717,718,719,720,721,722,723,724,725,726,727,728,729,730,731,732,733,734,735,736,737,738,739,740,741,742,743,744,745,746,747,748,749,750,751,752,753,754,755,756,757,758,759,760,761,762,763,764,765,766,767,768,769,770,771,772,773,774,775,776,777,778,779,780,781,782,783,784,785,786,787,788,789,790,791,792,793,794,795,796,797,798,799,800,801,802,803,804,805,806,807,808,809,810,811,812,813,814,815,816,817,818,819,820,821,822,823,824,825,826,827,828,829,830,831,832,833,834,835,836,837,838,839,840,841,842,843,844,845,846,847,848,849,850,851,852,853,854,855,856,857,858,859,860,861,862,863,864,865,866,867,868,869,870,871,872,873,874,875,876,877,878,879,880,881,882,883,884,885,886,887,888,889,890,891,892,893,894,895,896,897,898,899,900,901,902,903,904,905,906,907,908,909,910,911,912,913,914,915,916,917,918,919,920,921,922,923,924,925,926,927,928,929,930,931,932,933,934,935,936,937,938,939,940,941,942,943,944,945,946,947,948,949,950,951,952,953,954,955,956,957,958,959,960,961,962,963,964,965,966,967,968,969,970,971,972,973,974,975,976,977,978,979,980,981,982,983,984,985,986,987,988,989,990,991,992,993,994,995,996,997,998,999,1000,1001,1002,1003,1004,1005,1006,1007,1008,1009,1010,1011,1012,1013,1014,1015,1016,1017,1018,1019,1020,1021,1022,1023,1024,1025,1026,1027,1028,1029,1030,1031,1032,1033,1034,1035,1036,1037,1038,1039,1040,1041,1042,1043,1044,1045,1046,1047,1048,1049,1050,1051,1052,1053,1054,1055,1056,1057,1058,1059,1060,1061,1062,1063,1064,1065,1066,1067,1068,1069,1070,1071,1072,1073,1074,1075,1076,1077,1078,1079,1080,1081,1082,1083,1084,1085,1086,1087,1088,1089,1090,1091,1092,1093,1094,1095,1096,1097,1098,1099,1100,1101,1102,1103,1104,1105,1106,1107,1108,1109,1110,1111,1112,1113,1114,1115,1116,1117,1118,1119,1120,1121,1122,1123,1124,1125,1126,1127,1128,1129,1130,1131,1132,1133,1134,1135,1136,1137,1138,1139,1140,1141,1142,1143,1144,1145,1146,1147,1148,1149,1150,1151,1152,1153,1154,1155,1156,1157,1158,1159,1160,1161,1162,1163,1164,1165,1166,1167,1168,1169,1170,1171,1172,1173,1174,1175,1176,1177,1178,1179,1180,1181,1182,1183,1184,1185,1186,1187,1188,1189,1190,1191,1192,1193,1194,1195,1196,1197,1198,1199,1200,1201,1202,1203,1204,1205,1206,1207,1208,1209,1210,1211,1212,1213,1214,1215,1216,1217,1218,1219,1220,1221,1222,1223,1224,1225,1226,1227,1228,1229,1230,1231,1232,1233,1234,1235,1236,1237,1238,1239,1240,1241,1242,1243,1244,1245,1246,1247,1248,1249,1250,1251,1252,1253,1254,1255,1256,1257,1258,1259,1260,1261,1262,1263,1264,1265,1266,1267,1268,1269,1270,1271,1272,1273,1274,1275,1276,1277,1278,1279,1280,1281,1282,1283,1284,1285,1286,1287,1288,1289,1290,1291,1292,1293,1294,1295,1296,1297,1298,1299,1300,1301,1302,1303,1304,1305,1306,1307,1308,1309,1310,1311,1312,1313,1314,1315,1316,1317,1318,1319,1320,1321,1322,1323,1324,1325,1326,1327,1328,1329,1330,1331,1332,1333,1334,1335,1336,1337,1338,1339,1340,1341,1342,1343,1344,1345,1346,1347,1348,1349,1350,1351,1352,1353,1354,1355,1356,1357,1358,1359,1360,1361,1362,1363,1364,1365,1366,1367,1368,1369,1370,1371,1372,1373,1374,1375,1376,1377,1378,1379,1380,1381,1382,1383,1384,1385,1386,1387,1388,1389,1390,1391,1392,1393,1394,1395,1396,1397,1398,1399,1400,1401,1402,1403,1404,1405,1406,1407,1408,1409,1410,1411,1412,1413,1414,1415,1416,1417,1418,1419,1420,1421,1422,1423,1424,1425,1426,1427,1428,1429,1430,1431,1432,1433,1434,1435,1436,1437,1438,1439,1440,1441,1442,1443,1444,1445,1446,1447,1448,1449,1450,1451,1452,1453,1454,1455,1456,1457,1458,1459,1460,1461,1462,1463,1464,1465,1466,1467,1468,1469,1470,1471,1472,1473,1474,1475,1476,1477,1478,1479,1480,1481,1482,1483,1484,1485,1486,1487,1488,1489,1490,1491,1492,1493,1494,1495,1496,1497,1498,1499,1500,1501,1502,1503,1504,1505,1506,1507,1508,1509,1510,1511,1512,1513,1514,1515,1516,1517,1518,1519,1520,1521,1522,1523,1524,1525,1526,1527,1528,1529,1530,1531,1532,1533,1534,1535,1536,1537,1538,1539,1540,1541,1542,1543,1544,1545,1546,1547,1548,1549,1550,1551,1552,1553,1554,1555,1556,1557,1558,1559,1560,1561,1562,1563,1564,1565,1566,1567,1568,1569,1570,1571,1572,1573,1574,1575,1576,1577,1578,1579,1580,1581,1582,1583,1584,1585,1586,1587,1588,1589,1590,1591,1592,1593,1594,1595,1596,1597,1598,1599,1600,1601,1602,1603,1604,1605,1606,1607,1608,1609,1610,1611,1612,1613,1614,1615,1616,1617,1618,1619,1620,1621,1622,1623,1624,1625,1626,1627,1628,1629,1630,1631,1632,1633,1634,1635,1636,1637,1638,1639,1640,1641,1642,1643,1644,1645,1646,1647,1648,1649,1650,1651,1652,1653,1654,1655,1656,1657,1658,1659,1660,1661,1662,1663,1664,1665,1666,1667,1668,1669,1670,1671,1672,1673,1674,1675,1676,1677,1678,1679,1680,1681,1682,1683,1684,1685,1686,1687,1688,1689,1690,1691,1692,1693,1694,1695,1696,1697,1698,1699,1700,1701,1702,1703,1704,1705,1706,1707,1708,1709,1710,1711,1712,1713,1714,1715,1716,1717,1718,1719,1720,1721,1722,1723,1724,1725,1726,1727,1728,1729,1730,1731,1732,1733,1734,1735,1736,1737,1738,1739,1740,1741,1742,1743,1744,1745,1746,1747,1748,1749,1750,1751,1752,1753,1754,1755,1756,1757,1758,1759,1760,1761,1762,1763,1764,1765,1766,1767,1768,1769,1770,1771,1772,1773,1774,1775,1776,1777,1778,1779,1780,1781,1782,1783,1784,1785,1786,1787,1788,1789,1790,1791,1792,1793,1794,1795,1796,1797,1798,1799,1800,1801,1802,1803,1804,1805,1806,1807,1808,1809,1810,1811,1812,1813,1814,1815,1816,1817,1818,1819,1820,1821,1822,1823,1824,1825,1826,1827,1828,1829,1830,1831,1832,1833,1834,1835,1836,1837,1838,1839,1840,1841,1842,1843,1844,1845,1846,1847,1848,1849,1850,1851,1852,1853,1854,1855,1856,1857,1858,1859,1860,1861,1862,1863,1864,1865,1866,1867,1868,1869,1870,1871,1872,1873,1874,1875,1876,1877,1878,1879,1880,1881,1882,1883,1884,1885,1886,1887,1888,1889,1890,1891,1892,1893,1894,1895,1896,1897,1898,1899,1900,1901,1902,1903,1904,1905,1906,1907,1908,1909,1910,1911,1912,1913,1914,1915,1916,1917,1918,1919,1920,1921,1922,1923,1924,1925,1926,1927,1928,1929,1930,1931,1932,1933,1934,1935,1936,1937,1938,1939,1940,1941,1942,1943,1944,1945,1946,1947,1948,1949,1950,1951,1952,1953,1954,1955,1956,1957,1958,1959,1960,1961,1962,1963,1964,1965,1966,1967,1968,1969,1970,1971,1972,1973,1974,1975,1976,1977,1978,1979,1980,1981,1982,1983,1984,1985,1986,1987,1988,1989,1990,1991,1992,1993,1994,1995,1996,1997,1998,1999,2000,2001,2002,2003,2004,2005,2006,2007,2008,2009,2010,2011,2012,2013,2014,2015,2016,2017,2018,2019,2020,2021,2022,2023,2024,2025,2026,2027,2028,2029,2030,2031,2032,2033,2034,2035,2036,2037,2038,2039,2040,2041,2042,2043,2044,2045,2046,2047,2048,2049,2050,2051,2052,2053,2054,2055,2056,2057,2058,2059,2060,2061,2062,2063,2064,2065,2066,2067,2068,2069,2070,2071,2072,2073,2074,2075,2076,2077,2078,2079,2080,2081,2082,2083,2084,2085,2086,2087,2088,2089,2090,2091,2092,2093,2094,2095,2096,2097,2098,2099,2100,2101,2102,2103,2104,2105,2106,2107,2108,2109,2110,2111,2112,2113,2114,2115,2116,2117,2118,2119,2120,2121,2122,2123,2124,2125,2126,2127,2128,2129,2130,2131,2132,2133,2134,2135,2136,2137,2138,2139,2140,2141,2142,2143,2144,2145,2146,2147,2148,2149,2150,2151,2152,2153,2154,2155,2156,2157,2158,2159,2160,2161,2162,2163,2164,2165,2166,2167,2168,2169,2170,2171,2172,2173,2174,2175,2176,2177,2178,2179,2180,2181,2182,2183,2184,2185,2186,2187,2188,2189,2190,2191,2192,2193,2194,2195,2196,2197,2198,2199,2200,2201,2202,2203,2204,2205,2206,2207,2208,2209,2210,2211,2212,2213,2214,2215,2216,2217,2218,2219,2220,2221,2222,2223,2224,2225,2226,2227,2228,2229,2230,2231,2232,2233,2234,2235,2236,2237,2238,2239,2240,2241,2242,2243,2244,2245,2246,2247,2248,2249,2250,2251,2252,2253,2254,2255,2256,2257,2258,2259,2260,2261,2262,2263,2264,2265,2266,2267,2268,2269,2270,2271],"tree_info":[0,0,0,0,0,0,0,0,0,0,0,0,0,0,0,0,0,0,0,0,0,0,0,0,0,0,0,0,0,0,0,0,0,0,0,0,0,0,0,0,0,0,0,0,0,0,0,0,0,0,0,0,0,0,0,0,0,0,0,0,0,0,0,0,0,0,0,0,0,0,0,0,0,0,0,0,0,0,0,0,0,0,0,0,0,0,0,0,0,0,0,0,0,0,0,0,0,0,0,0,0,0,0,0,0,0,0,0,0,0,0,0,0,0,0,0,0,0,0,0,0,0,0,0,0,0,0,0,0,0,0,0,0,0,0,0,0,0,0,0,0,0,0,0,0,0,0,0,0,0,0,0,0,0,0,0,0,0,0,0,0,0,0,0,0,0,0,0,0,0,0,0,0,0,0,0,0,0,0,0,0,0,0,0,0,0,0,0,0,0,0,0,0,0,0,0,0,0,0,0,0,0,0,0,0,0,0,0,0,0,0,0,0,0,0,0,0,0,0,0,0,0,0,0,0,0,0,0,0,0,0,0,0,0,0,0,0,0,0,0,0,0,0,0,0,0,0,0,0,0,0,0,0,0,0,0,0,0,0,0,0,0,0,0,0,0,0,0,0,0,0,0,0,0,0,0,0,0,0,0,0,0,0,0,0,0,0,0,0,0,0,0,0,0,0,0,0,0,0,0,0,0,0,0,0,0,0,0,0,0,0,0,0,0,0,0,0,0,0,0,0,0,0,0,0,0,0,0,0,0,0,0,0,0,0,0,0,0,0,0,0,0,0,0,0,0,0,0,0,0,0,0,0,0,0,0,0,0,0,0,0,0,0,0,0,0,0,0,0,0,0,0,0,0,0,0,0,0,0,0,0,0,0,0,0,0,0,0,0,0,0,0,0,0,0,0,0,0,0,0,0,0,0,0,0,0,0,0,0,0,0,0,0,0,0,0,0,0,0,0,0,0,0,0,0,0,0,0,0,0,0,0,0,0,0,0,0,0,0,0,0,0,0,0,0,0,0,0,0,0,0,0,0,0,0,0,0,0,0,0,0,0,0,0,0,0,0,0,0,0,0,0,0,0,0,0,0,0,0,0,0,0,0,0,0,0,0,0,0,0,0,0,0,0,0,0,0,0,0,0,0,0,0,0,0,0,0,0,0,0,0,0,0,0,0,0,0,0,0,0,0,0,0,0,0,0,0,0,0,0,0,0,0,0,0,0,0,0,0,0,0,0,0,0,0,0,0,0,0,0,0,0,0,0,0,0,0,0,0,0,0,0,0,0,0,0,0,0,0,0,0,0,0,0,0,0,0,0,0,0,0,0,0,0,0,0,0,0,0,0,0,0,0,0,0,0,0,0,0,0,0,0,0,0,0,0,0,0,0,0,0,0,0,0,0,0,0,0,0,0,0,0,0,0,0,0,0,0,0,0,0,0,0,0,0,0,0,0,0,0,0,0,0,0,0,0,0,0,0,0,0,0,0,0,0,0,0,0,0,0,0,0,0,0,0,0,0,0,0,0,0,0,0,0,0,0,0,0,0,0,0,0,0,0,0,0,0,0,0,0,0,0,0,0,0,0,0,0,0,0,0,0,0,0,0,0,0,0,0,0,0,0,0,0,0,0,0,0,0,0,0,0,0,0,0,0,0,0,0,0,0,0,0,0,0,0,0,0,0,0,0,0,0,0,0,0,0,0,0,0,0,0,0,0,0,0,0,0,0,0,0,0,0,0,0,0,0,0,0,0,0,0,0,0,0,0,0,0,0,0,0,0,0,0,0,0,0,0,0,0,0,0,0,0,0,0,0,0,0,0,0,0,0,0,0,0,0,0,0,0,0,0,0,0,0,0,0,0,0,0,0,0,0,0,0,0,0,0,0,0,0,0,0,0,0,0,0,0,0,0,0,0,0,0,0,0,0,0,0,0,0,0,0,0,0,0,0,0,0,0,0,0,0,0,0,0,0,0,0,0,0,0,0,0,0,0,0,0,0,0,0,0,0,0,0,0,0,0,0,0,0,0,0,0,0,0,0,0,0,0,0,0,0,0,0,0,0,0,0,0,0,0,0,0,0,0,0,0,0,0,0,0,0,0,0,0,0,0,0,0,0,0,0,0,0,0,0,0,0,0,0,0,0,0,0,0,0,0,0,0,0,0,0,0,0,0,0,0,0,0,0,0,0,0,0,0,0,0,0,0,0,0,0,0,0,0,0,0,0,0,0,0,0,0,0,0,0,0,0,0,0,0,0,0,0,0,0,0,0,0,0,0,0,0,0,0,0,0,0,0,0,0,0,0,0,0,0,0,0,0,0,0,0,0,0,0,0,0,0,0,0,0,0,0,0,0,0,0,0,0,0,0,0,0,0,0,0,0,0,0,0,0,0,0,0,0,0,0,0,0,0,0,0,0,0,0,0,0,0,0,0,0,0,0,0,0,0,0,0,0,0,0,0,0,0,0,0,0,0,0,0,0,0,0,0,0,0,0,0,0,0,0,0,0,0,0,0,0,0,0,0,0,0,0,0,0,0,0,0,0,0,0,0,0,0,0,0,0,0,0,0,0,0,0,0,0,0,0,0,0,0,0,0,0,0,0,0,0,0,0,0,0,0,0,0,0,0,0,0,0,0,0,0,0,0,0,0,0,0,0,0,0,0,0,0,0,0,0,0,0,0,0,0,0,0,0,0,0,0,0,0,0,0,0,0,0,0,0,0,0,0,0,0,0,0,0,0,0,0,0,0,0,0,0,0,0,0,0,0,0,0,0,0,0,0,0,0,0,0,0,0,0,0,0,0,0,0,0,0,0,0,0,0,0,0,0,0,0,0,0,0,0,0,0,0,0,0,0,0,0,0,0,0,0,0,0,0,0,0,0,0,0,0,0,0,0,0,0,0,0,0,0,0,0,0,0,0,0,0,0,0,0,0,0,0,0,0,0,0,0,0,0,0,0,0,0,0,0,0,0,0,0,0,0,0,0,0,0,0,0,0,0,0,0,0,0,0,0,0,0,0,0,0,0,0,0,0,0,0,0,0,0,0,0,0,0,0,0,0,0,0,0,0,0,0,0,0,0,0,0,0,0,0,0,0,0,0,0,0,0,0,0,0,0,0,0,0,0,0,0,0,0,0,0,0,0,0,0,0,0,0,0,0,0,0,0,0,0,0,0,0,0,0,0,0,0,0,0,0,0,0,0,0,0,0,0,0,0,0,0,0,0,0,0,0,0,0,0,0,0,0,0,0,0,0,0,0,0,0,0,0,0,0,0,0,0,0,0,0,0,0,0,0,0,0,0,0,0,0,0,0,0,0,0,0,0,0,0,0,0,0,0,0,0,0,0,0,0,0,0,0,0,0,0,0,0,0,0,0,0,0,0,0,0,0,0,0,0,0,0,0,0,0,0,0,0,0,0,0,0,0,0,0,0,0,0,0,0,0,0,0,0,0,0,0,0,0,0,0,0,0,0,0,0,0,0,0,0,0,0,0,0,0,0,0,0,0,0,0,0,0,0,0,0,0,0,0,0,0,0,0,0,0,0,0,0,0,0,0,0,0,0,0,0,0,0,0,0,0,0,0,0,0,0,0,0,0,0,0,0,0,0,0,0,0,0,0,0,0,0,0,0,0,0,0,0,0,0,0,0,0,0,0,0,0,0,0,0,0,0,0,0,0,0,0,0,0,0,0,0,0,0,0,0,0,0,0,0,0,0,0,0,0,0,0,0,0,0,0,0,0,0,0,0,0,0,0,0,0,0,0,0,0,0,0,0,0,0,0,0,0,0,0,0,0,0,0,0,0,0,0,0,0,0,0,0,0,0,0,0,0,0,0,0,0,0,0,0,0,0,0,0,0,0,0,0,0,0,0,0,0,0,0,0,0,0,0,0,0,0,0,0,0,0,0,0,0,0,0,0,0,0,0,0,0,0,0,0,0,0,0,0,0,0,0,0,0,0,0,0,0,0,0,0,0,0,0,0,0,0,0,0,0,0,0,0,0,0,0,0,0,0,0,0,0,0,0,0,0,0,0,0,0,0,0,0,0,0,0,0,0,0,0,0,0,0,0,0,0,0,0,0,0,0,0,0,0,0,0,0,0,0,0,0,0,0,0,0,0,0,0,0,0,0,0,0,0,0,0,0,0,0,0,0,0,0,0,0,0,0,0,0,0,0,0,0,0,0,0,0,0,0,0,0,0,0,0,0,0,0,0,0,0,0,0,0,0,0,0,0,0,0,0,0,0,0,0,0,0,0,0,0,0,0,0,0,0,0,0,0,0,0,0,0,0,0,0,0,0,0,0,0,0,0,0,0,0,0,0,0,0,0,0,0,0,0,0,0,0,0,0,0,0,0,0,0,0,0,0,0,0,0,0,0,0,0,0,0,0,0,0,0,0,0,0,0,0,0,0,0,0,0,0,0,0,0,0,0,0,0,0,0,0,0,0,0,0,0,0,0,0,0,0,0,0,0,0,0,0,0,0,0,0,0,0,0,0,0,0,0,0,0,0,0,0,0,0,0,0,0,0,0,0,0,0,0,0,0,0,0,0,0,0,0,0,0,0,0,0,0,0,0,0,0,0,0,0,0,0,0,0,0,0,0,0,0,0,0,0,0,0,0,0,0,0,0,0,0,0,0,0,0,0,0,0,0,0,0,0,0,0,0,0,0,0,0,0,0,0,0,0,0,0,0,0,0,0,0,0,0,0,0,0,0,0,0,0,0,0,0,0,0,0,0,0,0,0,0,0,0,0,0,0,0,0,0,0,0,0,0,0,0,0,0,0,0,0,0,0,0,0,0,0,0,0,0,0,0,0,0,0,0,0,0,0,0,0,0,0,0,0,0,0,0,0,0,0,0,0,0,0,0,0,0,0,0,0,0,0,0,0,0,0,0,0,0,0,0,0,0,0,0,0,0,0,0,0,0,0,0,0,0,0,0,0,0,0,0,0,0,0,0,0,0,0,0,0,0,0,0,0,0,0,0,0,0,0,0,0,0,0,0,0,0,0,0,0,0,0,0,0,0,0,0,0,0,0,0,0,0,0,0,0,0,0,0,0,0,0,0,0,0,0,0,0,0,0,0,0,0,0,0,0,0,0,0,0,0,0,0,0,0,0,0,0,0,0,0,0,0,0],"trees":[{"base_weights":[1.968628E-2,-6.0756266E-1,5.088157E-1,-8.266183E-1,-5.2497067E-2,5.5036798E-2,7.8682524E-1,-0E0,-1.6212574E-3,2.7362918E-4,-7.818811E-4,-7.984356E-5,6.3386816E-4,1.8570237E-3,5.054259E-4],"categories":[],"categories_nodes":[],"categories_segments":[],"categories_sizes":[],"default_left":[0,0,0,0,0,0,0,0,0,0,0,0,0,0,0],"id":0,"left_children":[1,3,5,7,9,11,13,-1,-1,-1,-1,-1,-1,-1,-1],"loss_changes":[9.0183304E1,1.23319435E1,1.8357155E1,5.48806E0,4.838049E0,3.3452704E0,8.156998E0,0E0,0E0,0E0,0E0,0E0,0E0,0E0,0E0],"parents":[2147483647,0,0,1,1,2,2,3,3,4,4,5,5,6,6],"right_children":[2,4,6,8,10,12,14,-1,-1,-1,-1,-1,-1,-1,-1],"split_conditions":[-4.7512855E-3,-1.75E0,8.181818E-1,-7.8E0,5.3792095E0,1.2014288E-2,-8.37438E-3,-0E0,-1.6212574E-3,2.7362918E-4,-7.818811E-4,-7.984356E-5,6.3386816E-4,1.8570237E-3,5.054259E-4],"split_indices":[119,167,167,169,4,0,123,0,0,0,0,0,0,0,0],"split_type":[0,0,0,0,0,0,0,0,0,0,0,0,0,0,0],"sum_hessian":[2.8759265E2,1.2268633E2,1.6490633E2,8.245316E1,4.023317E1,6.8793755E1,9.611257E1,1.1424233E1,7.102893E1,2.235176E1,1.7881409E1,4.6193638E1,2.2600115E1,5.488599E1,4.122658E1],"tree_param":{"num_deleted":"0","num_feature":"172","num_nodes":"15","size_leaf_vector":"1"}},{"base_weights":[-1.1129948E-2,-6.432135E-1,3.7988883E-1,-7.4604344E-1,1.9755389E-4,-0E0,7.1187884E-1,-1.7067948E-3,-4.4486116E-4,4.1225576E-4,-4.0866266E-4,1.8399061E-3,4.7292802E-4],"categories":[],"categories_nodes":[],"categories_segments":[],"categories_sizes":[],"default_left":[0,0,0,0,0,0,0,0,0,0,0,0,0],"id":1,"left_children":[1,3,5,7,-1,9,11,-1,-1,-1,-1,-1,-1],"loss_changes":[7.700643E1,1.1784008E1,2.2044092E1,7.623451E0,0E0,5.4016414E0,9.198166E0,0E0,0E0,0E0,0E0,0E0,0E0],"parents":[2147483647,0,0,1,1,2,2,3,3,5,5,6,6],"right_children":[2,4,6,8,-1,10,12,-1,-1,-1,-1,-1,-1],"split_conditions":[-1.7E0,4.7675577E-1,1.2004594E-2,-1.25E-1,1.9755389E-4,4.3392557E-1,-1.5112431E-2,-1.7067948E-3,-4.4486116E-4,4.1225576E-4,-4.0866266E-4,1.8399061E-3,4.7292802E-4],"split_indices":[166,18,116,162,0,67,120,0,0,0,0,0,0],"split_type":[0,0,0,0,0,0,0,0,0,0,0,0,0],"sum_hessian":[3.007545E2,1.1723149E2,1.8352298E2,1.0704891E2,1.0182577E1,9.039829E1,9.3124695E1,6.581987E1,4.1229042E1,4.9668682E1,4.072961E1,4.544363E1,4.7681065E1],"tree_param":{"num_deleted":"0","num_feature":"172","num_nodes":"13","size_leaf_vector":"1"}},{"base_weights":[-4.0351234E-2,-4.4261178E-1,4.596026E-1,-5.325596E-1,2.409272E-4,-0E0,7.080364E-1,-4.105812E-4,-1.4064078E-3,7.0295343E-4,-1.8295873E-4,-0E0,1.4050567E-3],"categories":[],"categories_nodes":[],"categories_segments":[],"categories_sizes":[],"default_left":[0,0,0,0,0,0,0,0,0,0,0,0,0],"id":2,"left_children":[1,3,5,7,-1,9,11,-1,-1,-1,-1,-1,-1],"loss_changes":[6.097257E1,1.0520805E1,1.3090269E1,8.404476E0,0E0,3.2490935E0,4.9770584E0,0E0,0E0,0E0,0E0,0E0,0E0],"parents":[2147483647,0,0,1,1,2,2,3,3,5,5,6,6],"right_children":[2,4,6,8,-1,10,12,-1,-1,-1,-1,-1,-1],"split_conditions":[9.963347E-3,1.3333334E0,1.8E0,3.8489234E-5,2.409272E-4,-2.3952486E-2,-1.63425E-1,-4.105812E-4,-1.4064078E-3,7.0295343E-4,-1.8295873E-4,-0E0,1.4050567E-3],"split_indices":[118,132,165,143,0,123,139,0,0,0,0,0,0],"split_type":[0,0,0,0,0,0,0,0,0,0,0,0,0],"sum_hessian":[2.960374E2,1.6790405E2,1.2813335E2,1.5051807E2,1.7385994E1,5.0164642E1,7.7968704E1,8.096833E1,6.9549736E1,1.3657795E1,3.6506847E1,1.0677086E1,6.729162E1],"tree_param":{"num_deleted":"0","num_feature":"172","num_nodes":"13","size_leaf_vector":"1"}},{"base_weights":[6.6051516E-3,-4.067801E-1,5.753118E-1,-5.6240124E-1,6.1619602E-2,7.387546E-1,-0E0,-1.0963758E-3,-0E0,5.2177714E-4,-4.2545152E-4,1.4433201E-3,-0E0,-5.594049E-4,4.381312E-4],"categories":[],"categories_nodes":[],"categories_segments":[],"categories_sizes":[],"default_left":[0,0,0,0,0,0,0,0,0,0,0,0,0,0,0],"id":3,"left_children":[1,3,5,7,9,11,13,-1,-1,-1,-1,-1,-1,-1,-1],"loss_changes":[7.246192E1,1.4436113E1,1.2914204E1,5.173683E0,3.445754E0,6.9045525E0,2.9121277E0,0E0,0E0,0E0,0E0,0E0,0E0,0E0,0E0],"parents":[2147483647,0,0,1,1,2,2,3,3,4,4,5,5,6,6],"right_children":[2,4,6,8,10,12,14,-1,-1,-1,-1,-1,-1,-1,-1],"split_conditions":[4.2857143E-1,1.0289408E-2,6.6666665E0,4.8986092E-1,4.8808223E-1,4.9545455E-1,0E0,-1.0963758E-3,-0E0,5.2177714E-4,-4.2545152E-4,1.4433201E-3,-0E0,-5.594049E-4,4.381312E-4],"split_indices":[167,119,168,91,40,64,160,0,0,0,0,0,0,0,0],"split_type":[0,0,0,0,0,0,0,0,0,0,0,0,0,0,0],"sum_hessian":[2.9852344E2,1.701473E2,1.2837613E2,1.323984E2,3.77489E1,1.0006761E2,2.8308521E1,1.18736755E2,1.3661642E1,2.731829E1,1.043061E1,8.938861E1,1.0679002E1,1.3161626E1,1.5146896E1],"tree_param":{"num_deleted":"0","num_feature":"172","num_nodes":"15","size_leaf_vector":"1"}},{"base_weights":[4.7220825E-3,-3.9368096E-1,5.617317E-1,-9.0957135E-1,-1.4226276E-1,7.7641726E-1,-0E0,-1.889703E-3,-0E0,-0E0,-7.9808984E-4,-0E0,1.5085567E-3,-3.8248042E-4,9.83506E-4],"categories":[],"categories_nodes":[],"categories_segments":[],"categories_sizes":[],"default_left":[0,0,0,0,0,0,0,0,0,0,0,0,0,0,0],"id":4,"left_children":[1,3,5,7,9,11,13,-1,-1,-1,-1,-1,-1,-1,-1],"loss_changes":[6.583857E1,1.7891544E1,1.3770214E1,4.977001E0,6.808788E0,4.9136963E0,6.1361027E0,0E0,0E0,0E0,0E0,0E0,0E0,0E0,0E0],"parents":[2147483647,0,0,1,1,2,2,3,3,4,4,5,5,6,6],"right_children":[2,4,6,8,10,12,14,-1,-1,-1,-1,-1,-1,-1,-1],"split_conditions":[8.181818E-1,-5.904761E-2,4.4237024E-1,3.8597956E-2,6.585986E-2,4.8950105E0,4.9698684E-1,-1.889703E-3,-0E0,-0E0,-7.9808984E-4,-0E0,1.5085567E-3,-3.8248042E-4,9.83506E-4],"split_indices":[167,118,67,123,154,7,16,0,0,0,0,0,0,0,0],"split_type":[0,0,0,0,0,0,0,0,0,0,0,0,0,0,0],"sum_hessian":[2.868479E2,1.6444228E2,1.22405624E2,4.6458714E1,1.1798357E2,8.5157875E1,3.7247753E1,3.6024033E1,1.0434679E1,7.7246315E1,4.073725E1,1.0428496E1,7.472938E1,2.6075104E1,1.1172652E1],"tree_param":{"num_deleted":"0","num_feature":"172","num_nodes":"15","size_leaf_vector":"1"}},{"base_weights":[-0E0,-3.3549014E-1,6.284785E-1,-5.8366066E-1,-0E0,-0E0,8.3997536E-1,-1.1921127E-3,-0E0,-6.957914E-4,2.54761E-4,-4.839057E-4,4.6509886E-4,1.7769843E-3,1.8884904E-4],"categories":[],"categories_nodes":[],"categories_segments":[],"categories_sizes":[],"default_left":[0,0,0,0,0,0,0,0,0,0,0,0,0,0,0],"id":5,"left_children":[1,3,5,7,9,11,13,-1,-1,-1,-1,-1,-1,-1,-1],"loss_changes":[6.483733E1,1.5818529E1,1.2658199E1,8.553619E0,5.529326E0,2.7187362E0,6.1162033E0,0E0,0E0,0E0,0E0,0E0,0E0,0E0,0E0],"parents":[2147483647,0,0,1,1,2,2,3,3,4,4,5,5,6,6],"right_children":[2,4,6,8,10,12,14,-1,-1,-1,-1,-1,-1,-1,-1],"split_conditions":[1.9E0,-2.5E0,-5.546967E-3,1.3669655E-1,-1.3092136E-1,6E-1,4.5349505E-3,-1.1921127E-3,-0E0,-6.957914E-4,2.54761E-4,-4.839057E-4,4.6509886E-4,1.7769843E-3,1.8884904E-4],"split_indices":[166,167,116,114,87,45,121,0,0,0,0,0,0,0,0],"split_type":[0,0,0,0,0,0,0,0,0,0,0,0,0,0,0],"sum_hessian":[2.9653558E2,1.9176729E2,1.047683E2,1.0732588E2,8.44414E1,2.9799265E1,7.496904E1,9.5899376E1,1.142651E1,2.235273E1,6.2088673E1,1.0678904E1,1.9120361E1,5.560356E1,1.9365473E1],"tree_param":{"num_deleted":"0","num_feature":"172","num_nodes":"15","size_leaf_vector":"1"}},{"base_weights":[-4.1040763E-2,-4.3063292E-1,4.45023E-1,-0E0,-5.562486E-1,-0E0,6.917485E-1,6.657917E-4,-7.460838E-4,-0E0,-1.0782189E-3,-3.597533E-4,1.0664731E-3,1.5408307E-3,-0E0],"categories":[],"categories_nodes":[],"categories_segments":[],"categories_sizes":[],"default_left":[0,0,0,0,0,0,0,0,0,0,0,0,0,0,0],"id":6,"left_children":[1,3,5,7,9,11,13,-1,-1,-1,-1,-1,-1,-1,-1],"loss_changes":[5.619428E1,1.0192081E1,1.3599173E1,6.730383E0,5.69207E0,7.128719E0,1.0339756E1,0E0,0E0,0E0,0E0,0E0,0E0,0E0,0E0],"parents":[2147483647,0,0,1,1,2,2,3,3,4,4,5,5,6,6],"right_children":[2,4,6,8,10,12,14,-1,-1,-1,-1,-1,-1,-1,-1],"split_conditions":[4.2857143E-1,-1.4718012E-2,1.9374108E-2,6.3624226E-2,-7.5E-1,4.8620188E-1,5.658321E-3,6.657917E-4,-7.460838E-4,-0E0,-1.0782189E-3,-3.597533E-4,1.0664731E-3,1.5408307E-3,-0E0],"split_indices":[167,121,118,154,131,88,121,0,0,0,0,0,0,0,0],"split_type":[0,0,0,0,0,0,0,0,0,0,0,0,0,0,0],"sum_hessian":[2.895787E2,1.6470749E2,1.2487122E2,3.4528046E1,1.3017944E2,4.693181E1,7.793941E1,2.0864395E1,1.366365E1,1.0185248E1,1.199942E2,3.600634E1,1.09254675E1,5.9816364E1,1.8123049E1],"tree_param":{"num_deleted":"0","num_feature":"172","num_nodes":"15","size_leaf_vector":"1"}},{"base_weights":[-2.899745E-2,-5.897064E-1,3.7481865E-1,-0E0,-7.4857974E-1,-0E0,7.267832E-1,-4.735135E-4,3.3929106E-4,-5.0030806E-4,-1.6572981E-3,-5.008879E-4,1.7688125E-4,-0E0,1.5372398E-3],"categories":[],"categories_nodes":[],"categories_segments":[],"categories_sizes":[],"default_left":[0,0,0,0,0,0,0,0,0,0,0,0,0,0,0],"id":7,"left_children":[1,3,5,7,9,11,13,-1,-1,-1,-1,-1,-1,-1,-1],"loss_changes":[7.050737E1,1.0050076E1,2.3506262E1,2.3297806E0,4.216858E0,2.7460213E0,8.821415E0,0E0,0E0,0E0,0E0,0E0,0E0,0E0,0E0],"parents":[2147483647,0,0,1,1,2,2,3,3,4,4,5,5,6,6],"right_children":[2,4,6,8,10,12,14,-1,-1,-1,-1,-1,-1,-1,-1],"split_conditions":[-5.3508133E-3,-3.7763946E-2,3.3333335E-2,-1.6666666E0,5.463838E0,-1.4231443E-1,-4.4770658E-2,-4.735135E-4,3.3929106E-4,-5.0030806E-4,-1.6572981E-3,-5.008879E-4,1.7688125E-4,-0E0,1.5372398E-3],"split_indices":[119,158,163,164,54,106,113,0,0,0,0,0,0,0,0],"split_type":[0,0,0,0,0,0,0,0,0,0,0,0,0,0,0],"sum_hessian":[3.0100754E2,1.2870097E2,1.7230658E2,3.229639E1,9.640458E1,8.4683174E1,8.7623405E1,1.9629208E1,1.2667185E1,3.676826E1,5.963632E1,2.136148E1,6.332169E1,1.7625267E1,6.999814E1],"tree_param":{"num_deleted":"0","num_feature":"172","num_nodes":"15","size_leaf_vector":"1"}},{"base_weights":[-0E0,-2.6662886E-1,7.477138E-1,-6.0655904E-1,-0E0,-0E0,1.6606635E-3,-1.6786705E-4,-1.5726604E-3,-2.6592132E-4,7.910191E-4],"categories":[],"categories_nodes":[],"categories_segments":[],"categories_sizes":[],"default_left":[0,0,0,0,0,0,0,0,0,0,0],"id":8,"left_children":[1,3,5,7,9,-1,-1,-1,-1,-1,-1],"loss_changes":[5.926635E1,2.1152235E1,1.0374157E1,1.1502098E1,9.411856E0,0E0,0E0,0E0,0E0,0E0,0E0],"parents":[2147483647,0,0,1,1,2,2,3,3,4,4],"right_children":[2,4,6,8,10,-1,-1,-1,-1,-1,-1],"split_conditions":[4.4E0,0E0,-1.6828278E-3,5.5765023E0,3.0041987E-2,-0E0,1.6606635E-3,-1.6786705E-4,-1.5726604E-3,-2.6592132E-4,7.910191E-4],"split_indices":[167,161,116,55,117,0,0,0,0,0,0],"split_type":[0,0,0,0,0,0,0,0,0,0,0],"sum_hessian":[2.9330298E2,2.1934222E2,7.396075E1,9.690066E1,1.2244157E2,1.8124737E1,5.583601E1,4.123846E1,5.5662197E1,9.091168E1,3.152989E1],"tree_param":{"num_deleted":"0","num_feature":"172","num_nodes":"11","size_leaf_vector":"1"}},{"base_weights":[-0E0,-4.9148703E-1,3.8616067E-1,-0E0,-6.280951E-1,-0E0,7.787149E-1,-2.4227839E-4,5.6739047E-4,-0E0,-1.2847849E-3,-1.5289846E-4,7.035821E-4,1.541547E-3,-0E0],"categories":[],"categories_nodes":[],"categories_segments":[],"categories_sizes":[],"default_left":[0,0,0,0,0,0,0,0,0,0,0,0,0,0,0],"id":9,"left_children":[1,3,5,7,9,11,13,-1,-1,-1,-1,-1,-1,-1,-1],"loss_changes":[5.6179558E1,1.0471436E1,2.306265E1,1.9184706E0,9.120106E0,3.9244795E0,3.7960434E0,0E0,0E0,0E0,0E0,0E0,0E0,0E0,0E0],"parents":[2147483647,0,0,1,1,2,2,3,3,4,4,5,5,6,6],"right_children":[2,4,6,8,10,12,14,-1,-1,-1,-1,-1,-1,-1,-1],"split_conditions":[-4.7512855E-3,4.3432897E-1,2.25E0,4.1383222E-1,-8.092707E-2,1.6568916E-1,7.6373404E-1,-2.4227839E-4,5.6739047E-4,-0E0,-1.2847849E-3,-1.5289846E-4,7.035821E-4,1.541547E-3,-0E0],"split_indices":[119,67,165,64,158,108,136,0,0,0,0,0,0,0,0],"split_type":[0,0,0,0,0,0,0,0,0,0,0,0,0,0,0],"sum_hessian":[2.8759952E2,1.2821654E2,1.5938298E2,2.4593992E1,1.0362254E2,8.49369E1,7.444608E1,1.3166229E1,1.1427764E1,1.217353E1,9.144901E1,6.7804405E1,1.7132492E1,6.2038834E1,1.240725E1],"tree_param":{"num_deleted":"0","num_feature":"172","num_nodes":"15","size_leaf_vector":"1"}},{"base_weights":[-0E0,-4.9364644E-1,3.9221334E-1,-7.588497E-2,-7.511729E-1,-0E0,7.667853E-1,-7.4066815E-4,1.6689162E-4,-1.6275325E-3,-1.3861776E-4,9.3496183E-4,-2.6350352E-4,1.6448137E-3,1.3665266E-4],"categories":[],"categories_nodes":[],"categories_segments":[],"categories_sizes":[],"default_left":[0,0,0,0,0,0,0,0,0,0,0,0,0,0,0],"id":10,"left_children":[1,3,5,7,9,11,13,-1,-1,-1,-1,-1,-1,-1,-1],"loss_changes":[5.8359047E1,1.1304756E1,2.532675E1,4.7637777E0,5.697113E0,7.075658E0,6.928673E0,0E0,0E0,0E0,0E0,0E0,0E0,0E0,0E0],"parents":[2147483647,0,0,1,1,2,2,3,3,4,4,5,5,6,6],"right_children":[2,4,6,8,10,12,14,-1,-1,-1,-1,-1,-1,-1,-1],"split_conditions":[-5.3508133E-3,-1.2944539E-2,1.8E0,-1.5205914E-1,4E-1,-5.617238E-2,4.5349505E-3,-7.4066815E-4,1.6689162E-4,-1.6275325E-3,-1.3861776E-4,9.3496183E-4,-2.6350352E-4,1.6448137E-3,1.3665266E-4],"split_indices":[119,155,165,111,133,83,121,0,0,0,0,0,0,0,0],"split_type":[0,0,0,0,0,0,0,0,0,0,0,0,0,0,0],"sum_hessian":[2.947985E2,1.2847478E2,1.663237E2,5.565617E1,7.281861E1,8.245416E1,8.386953E1,2.286479E1,3.279138E1,5.2441917E1,2.0376694E1,1.5397704E1,6.705646E1,6.2028027E1,2.1841507E1],"tree_param":{"num_deleted":"0","num_feature":"172","num_nodes":"15","size_leaf_vector":"1"}},{"base_weights":[-0E0,-3.811878E-1,5.0124276E-1,-6.3798094E-1,-0E0,7.937877E-1,2.340581E-2,-0E0,-1.3962862E-3,7.200483E-4,-2.2842493E-4,-0E0,1.5667082E-3,-5.4561626E-4,6.7000743E-4],"categories":[],"categories_nodes":[],"categories_segments":[],"categories_sizes":[],"default_left":[0,0,0,0,0,0,0,0,0,0,0,0,0,0,0],"id":11,"left_children":[1,3,5,7,9,11,13,-1,-1,-1,-1,-1,-1,-1,-1],"loss_changes":[5.9611534E1,1.7276764E1,1.612764E1,9.551918E0,4.2227397E0,5.4405403E0,7.843217E0,0E0,0E0,0E0,0E0,0E0,0E0,0E0,0E0],"parents":[2147483647,0,0,1,1,2,2,3,3,4,4,5,5,6,6],"right_children":[2,4,6,8,10,12,14,-1,-1,-1,-1,-1,-1,-1,-1],"split_conditions":[8E-1,-4.7512855E-3,4.2857143E-1,-4.0301282E-2,-9.345093E-2,-2.565449E-1,8.3333336E-2,-0E0,-1.3962862E-3,7.200483E-4,-2.2842493E-4,-0E0,1.5667082E-3,-5.4561626E-4,6.7000743E-4],"split_indices":[166,119,67,159,73,58,161,0,0,0,0,0,0,0,0],"split_type":[0,0,0,0,0,0,0,0,0,0,0,0,0,0,0],"sum_hessian":[3.044726E2,1.7318779E2,1.312848E2,1.0190348E2,7.128431E1,7.5675224E1,5.560959E1,2.335887E1,7.854461E1,1.5150161E1,5.6134148E1,1.0420141E1,6.525508E1,2.4334743E1,3.1274845E1],"tree_param":{"num_deleted":"0","num_feature":"172","num_nodes":"15","size_leaf_vector":"1"}},{"base_weights":[-1.1095172E-4,-5.039304E-1,3.6401552E-1,-0E0,-6.722827E-1,-0E0,7.6026696E-1,-5.491569E-4,3.3779474E-4,-0E0,-1.4168923E-3,3.008845E-4,-5.5385375E-4,3.677387E-4,1.608386E-3],"categories":[],"categories_nodes":[],"categories_segments":[],"categories_sizes":[],"default_left":[0,0,0,0,0,0,0,0,0,0,0,0,0,0,0],"id":12,"left_children":[1,3,5,7,9,11,13,-1,-1,-1,-1,-1,-1,-1,-1],"loss_changes":[5.78046E1,9.420071E0,2.7913908E1,3.1384287E0,1.0412838E1,5.678645E0,3.4379997E0,0E0,0E0,0E0,0E0,0E0,0E0,0E0,0E0],"parents":[2147483647,0,0,1,1,2,2,3,3,4,4,5,5,6,6],"right_children":[2,4,6,8,10,12,14,-1,-1,-1,-1,-1,-1,-1,-1],"split_conditions":[-4.7512855E-3,4.4643983E-1,1.8E0,-1.1585489E-1,-6.0155507E-2,7.596481E-4,6.666667E-1,-5.491569E-4,3.3779474E-4,-0E0,-1.4168923E-3,3.008845E-4,-5.5385375E-4,3.677387E-4,1.608386E-3],"split_indices":[119,66,166,62,159,96,44,0,0,0,0,0,0,0,0],"split_type":[0,0,0,0,0,0,0,0,0,0,0,0,0,0,0],"sum_hessian":[3.052236E2,1.3122192E2,1.7400168E2,3.826487E1,9.295705E1,8.866023E1,8.534144E1,1.9628317E1,1.863655E1,1.4410519E1,7.854653E1,5.2401546E1,3.6258686E1,2.5803093E1,5.953835E1],"tree_param":{"num_deleted":"0","num_feature":"172","num_nodes":"15","size_leaf_vector":"1"}},{"base_weights":[-1.298068E-2,-3.457351E-1,4.723024E-1,-5.700891E-1,-0E0,7.4161625E-1,-0E0,-1.6706088E-4,-1.3880035E-3,2.1076006E-4,-4.8035238E-4,-0E0,1.5129383E-3,-5.832967E-4,5.547678E-4],"categories":[],"categories_nodes":[],"categories_segments":[],"categories_sizes":[],"default_left":[0,0,0,0,0,0,0,0,0,0,0,0,0,0,0],"id":13,"left_children":[1,3,5,7,9,11,13,-1,-1,-1,-1,-1,-1,-1,-1],"loss_changes":[4.8426685E1,1.45798E1,1.5036737E1,8.7664795E0,2.5042007E0,6.1957397E0,5.385282E0,0E0,0E0,0E0,0E0,0E0,0E0,0E0,0E0],"parents":[2147483647,0,0,1,1,2,2,3,3,4,4,5,5,6,6],"right_children":[2,4,6,8,10,12,14,-1,-1,-1,-1,-1,-1,-1,-1],"split_conditions":[4.067822E-2,-1.9925298E-2,-1.3336246E-3,4.4779795E-1,5.6157866E0,-3.2027024E-1,1.2727273E-1,-1.6706088E-4,-1.3880035E-3,2.1076006E-4,-4.8035238E-4,-0E0,1.5129383E-3,-5.832967E-4,5.547678E-4],"split_indices":[103,108,121,67,30,148,163,0,0,0,0,0,0,0,0],"split_type":[0,0,0,0,0,0,0,0,0,0,0,0,0,0,0],"sum_hessian":[2.9503943E2,1.7965088E2,1.1538856E2,1.0860378E2,7.1047104E1,7.194805E1,4.344051E1,4.123975E1,6.736403E1,5.241001E1,1.8637087E1,1.1908217E1,6.003983E1,2.0856937E1,2.258357E1],"tree_param":{"num_deleted":"0","num_feature":"172","num_nodes":"15","size_leaf_vector":"1"}},{"base_weights":[-0E0,-4.0456906E-1,5.488939E-1,-6.844295E-1,-9.776016E-2,3.589694E-2,8.4922165E-1,-0E0,-1.4912123E-3,-0E0,-1.0045037E-3,7.7356107E-4,-3.2368008E-4,1.7027614E-3,1.9095275E-4],"categories":[],"categories_nodes":[],"categories_segments":[],"categories_sizes":[],"default_left":[0,0,0,0,0,0,0,0,0,0,0,0,0,0,0],"id":14,"left_children":[1,3,5,7,9,11,13,-1,-1,-1,-1,-1,-1,-1,-1],"loss_changes":[6.778881E1,1.2448505E1,1.6791557E1,7.344467E0,5.9816413E0,6.1226883E0,3.1990242E0,0E0,0E0,0E0,0E0,0E0,0E0,0E0,0E0],"parents":[2147483647,0,0,1,1,2,2,3,3,4,4,5,5,6,6],"right_children":[2,4,6,8,10,12,14,-1,-1,-1,-1,-1,-1,-1,-1],"split_conditions":[3.3782605E-2,-1.4285715E-1,8.3333336E-2,-6.733755E-2,1.2878416E-1,-1.4451817E-2,1.45138465E-2,-0E0,-1.4912123E-3,-0E0,-1.0045037E-3,7.7356107E-4,-3.2368008E-4,1.7027614E-3,1.9095275E-4],"split_indices":[103,163,161,82,11,122,120,0,0,0,0,0,0,0,0],"split_type":[0,0,0,0,0,0,0,0,0,0,0,0,0,0,0],"sum_hessian":[2.9875696E2,1.7394545E2,1.2481152E2,8.302243E1,9.092301E1,5.1631306E1,7.3180214E1,2.0881092E1,6.2141342E1,7.37824E1,1.7140606E1,2.2085733E1,2.954557E1,5.7793304E1,1.5386915E1],"tree_param":{"num_deleted":"0","num_feature":"172","num_nodes":"15","size_leaf_vector":"1"}},{"base_weights":[9.75846E-3,-4.1271922E-1,5.8230364E-1,-5.741203E-1,-0E0,7.1448714E-1,-0E0,-1.5359236E-3,-3.823617E-4,6.8369677E-4,-4.3525232E-4,1.4144575E-3,5.9538637E-5,-3.4041106E-4,5.5050314E-4],"categories":[],"categories_nodes":[],"categories_segments":[],"categories_sizes":[],"default_left":[0,0,0,0,0,0,0,0,0,0,0,0,0,0,0],"id":15,"left_children":[1,3,5,7,9,11,13,-1,-1,-1,-1,-1,-1,-1,-1],"loss_changes":[7.387747E1,1.2524761E1,9.311131E0,9.406261E0,5.357438E0,3.9965744E0,2.1960835E0,0E0,0E0,0E0,0E0,0E0,0E0,0E0,0E0],"parents":[2147483647,0,0,1,1,2,2,3,3,4,4,5,5,6,6],"right_children":[2,4,6,8,10,12,14,-1,-1,-1,-1,-1,-1,-1,-1],"split_conditions":[8.035714E-1,4.5014212E-1,4.5648414E-1,-1.5555556E-1,3.67822E-3,2.4579072E-2,4.7542185E-1,-1.5359236E-3,-3.823617E-4,6.8369677E-4,-4.3525232E-4,1.4144575E-3,5.9538637E-5,-3.4041106E-4,5.5050314E-4],"split_indices":[166,18,66,162,98,50,18,0,0,0,0,0,0,0,0],"split_type":[0,0,0,0,0,0,0,0,0,0,0,0,0,0,0],"sum_hessian":[2.9577866E2,1.675006E2,1.2827806E2,1.2277717E2,4.472343E1,1.0220601E2,2.6072054E1,5.8179028E1,6.459814E1,1.9627575E1,2.5095856E1,8.483596E1,1.7370047E1,1.4656806E1,1.1415247E1],"tree_param":{"num_deleted":"0","num_feature":"172","num_nodes":"15","size_leaf_vector":"1"}},{"base_weights":[-0E0,-2.77854E-1,6.996131E-1,-6.03624E-1,-0E0,8.344413E-1,-0E0,-1.2574492E-3,-0E0,6.932417E-4,-1.8338766E-4,2.7736985E-5,1.6276457E-3],"categories":[],"categories_nodes":[],"categories_segments":[],"categories_sizes":[],"default_left":[0,0,0,0,0,0,0,0,0,0,0,0,0],"id":16,"left_children":[1,3,5,7,9,11,-1,-1,-1,-1,-1,-1,-1],"loss_changes":[6.0068474E1,2.0917288E1,6.768627E0,9.502594E0,5.5545673E0,2.491146E0,0E0,0E0,0E0,0E0,0E0,0E0,0E0],"parents":[2147483647,0,0,1,1,2,2,3,3,4,4,5,5],"right_children":[2,4,6,8,10,12,-1,-1,-1,-1,-1,-1,-1],"split_conditions":[4.6E0,-5.5555556E-2,5.5626197E0,4.7599524E-1,-2.0455793E-1,-1.1304437E-1,-0E0,-1.2574492E-3,-0E0,6.932417E-4,-1.8338766E-4,2.7736985E-5,1.6276457E-3],"split_indices":[165,162,54,18,37,34,0,0,0,0,0,0,0],"split_type":[0,0,0,0,0,0,0,0,0,0,0,0,0],"sum_hessian":[3.0595743E2,2.2261494E2,8.334248E1,1.01671E2,1.2094395E2,6.72113E1,1.613118E1,8.8752846E1,1.2918151E1,2.4586948E1,9.6356995E1,1.1161371E1,5.604993E1],"tree_param":{"num_deleted":"0","num_feature":"172","num_nodes":"13","size_leaf_vector":"1"}},{"base_weights":[-0E0,-5.2882314E-1,3.5045063E-1,-6.32608E-1,2.0702476E-4,5.6770015E-1,-1.5583608E-1,-1.3243678E-3,-0E0,1.5105363E-3,3.7896042E-4,-8.584419E-4,3.4239568E-4],"categories":[],"categories_nodes":[],"categories_segments":[],"categories_sizes":[],"default_left":[0,0,0,0,0,0,0,0,0,0,0,0,0],"id":17,"left_children":[1,3,5,7,-1,9,11,-1,-1,-1,-1,-1,-1],"loss_changes":[5.6918453E1,1.0154636E1,2.2087257E1,8.065861E0,0E0,9.854198E0,7.7079263E0,0E0,0E0,0E0,0E0,0E0,0E0],"parents":[2147483647,0,0,1,1,2,2,3,3,5,5,6,6],"right_children":[2,4,6,8,-1,10,12,-1,-1,-1,-1,-1,-1],"split_conditions":[-1.7E0,4.7675577E-1,4.4874895E-1,3.9027516E-2,2.0702476E-4,-9.388502E-3,1.9287251E-1,-1.3243678E-3,-0E0,1.5105363E-3,3.7896042E-4,-8.584419E-4,3.4239568E-4],"split_indices":[166,18,66,123,0,123,11,0,0,0,0,0,0],"split_type":[0,0,0,0,0,0,0,0,0,0,0,0,0],"sum_hessian":[3.0025006E2,1.1833302E2,1.8191704E2,1.06406815E2,1.19262085E1,1.3149963E2,5.041741E1,8.701387E1,1.9392948E1,6.324248E1,6.825715E1,2.9813086E1,2.0604326E1],"tree_param":{"num_deleted":"0","num_feature":"172","num_nodes":"13","size_leaf_vector":"1"}},{"base_weights":[-0E0,-4.6720937E-1,3.5467494E-1,3.846598E-4,-5.656284E-1,-9.959471E-3,7.2050107E-1,-1.6087128E-3,-4.4368394E-4,-3.8262873E-4,6.7783357E-4,1.5299919E-3,-0E0],"categories":[],"categories_nodes":[],"categories_segments":[],"categories_sizes":[],"default_left":[0,0,0,0,0,0,0,0,0,0,0,0,0],"id":18,"left_children":[1,3,5,-1,7,9,11,-1,-1,-1,-1,-1,-1],"loss_changes":[5.156212E1,1.0701103E1,2.5847364E1,0E0,8.916428E0,7.031055E0,8.076633E0,0E0,0E0,0E0,0E0,0E0,0E0],"parents":[2147483647,0,0,1,1,2,2,4,4,5,5,6,6],"right_children":[2,4,6,-1,8,10,12,-1,-1,-1,-1,-1,-1],"split_conditions":[-4.7512855E-3,-1.5285161E-1,1.8E0,3.846598E-4,-5.904761E-2,3.3333334E-1,1.736866E-2,-1.6087128E-3,-4.4368394E-4,-3.8262873E-4,6.7783357E-4,1.5299919E-3,-0E0],"split_indices":[119,27,165,0,118,131,50,0,0,0,0,0,0],"split_type":[0,0,0,0,0,0,0,0,0,0,0,0,0],"sum_hessian":[3.0348157E2,1.3101105E2,1.7247052E2,1.1677142E1,1.193339E2,8.369693E1,8.87736E1,4.749992E1,7.183398E1,6.13434E1,2.235353E1,6.942295E1,1.9350645E1],"tree_param":{"num_deleted":"0","num_feature":"172","num_nodes":"13","size_leaf_vector":"1"}},{"base_weights":[5.2163456E-2,-4.8783293E-1,3.6698002E-1,-0E0,-7.035569E-1,1.0891337E-3,7.1739936E-1,-2.8542563E-4,1.4155649E-4,-0E0,-1.6253184E-3,9.79464E-4,-1.5827447E-4,1.4465902E-3,-0E0],"categories":[],"categories_nodes":[],"categories_segments":[],"categories_sizes":[],"default_left":[0,0,0,0,0,0,0,0,0,0,0,0,0,0,0],"id":19,"left_children":[1,3,5,7,9,11,13,-1,-1,-1,-1,-1,-1,-1,-1],"loss_changes":[5.1892174E1,1.0455214E1,2.3005894E1,6.976986E-1,1.0999691E1,7.111265E0,8.155651E0,0E0,0E0,0E0,0E0,0E0,0E0,0E0,0E0],"parents":[2147483647,0,0,1,1,2,2,3,3,4,4,5,5,6,6],"right_children":[2,4,6,8,10,12,14,-1,-1,-1,-1,-1,-1,-1,-1],"split_conditions":[-5.6736715E-2,4.4725588E-1,7.777778E-2,1.6666667E-1,-3.9983783E-2,-2.6877398E-2,2.649785E-1,-2.8542563E-4,1.4155649E-4,-0E0,-1.6253184E-3,9.79464E-4,-1.5827447E-4,1.4465902E-3,-0E0],"split_indices":[103,66,163,170,158,122,71,0,0,0,0,0,0,0,0],"split_type":[0,0,0,0,0,0,0,0,0,0,0,0,0,0,0],"sum_hessian":[3.000026E2,1.05916595E2,1.9408601E2,3.5786724E1,7.012987E1,1.0131994E2,9.2766075E1,1.6897837E1,1.8888887E1,1.8893888E1,5.123598E1,1.6628931E1,8.469101E1,8.060674E1,1.2159335E1],"tree_param":{"num_deleted":"0","num_feature":"172","num_nodes":"15","size_leaf_vector":"1"}},{"base_weights":[-0E0,-2.9056075E-1,8.081217E-1,-6.6573745E-1,-0E0,9.8073584E-1,1.4921492E-1,-1.4473093E-3,-0E0,-2.8206743E-4,8.388563E-4,5.7351856E-5,1.9492339E-3,9.82517E-4,-1.3157183E-4],"categories":[],"categories_nodes":[],"categories_segments":[],"categories_sizes":[],"default_left":[0,0,0,0,0,0,0,0,0,0,0,0,0,0,0],"id":20,"left_children":[1,3,5,7,9,11,13,-1,-1,-1,-1,-1,-1,-1,-1],"loss_changes":[6.931592E1,2.6178602E1,4.5328217E0,9.259865E0,1.0901882E1,3.339363E0,4.0009456E0,0E0,0E0,0E0,0E0,0E0,0E0,0E0,0E0],"parents":[2147483647,0,0,1,1,2,2,3,3,4,4,5,5,6,6],"right_children":[2,4,6,8,10,12,14,-1,-1,-1,-1,-1,-1,-1,-1],"split_conditions":[4.5333333E0,0E0,3.2390219E-3,1.6329652E-2,1.3274097E-1,-5.546967E-3,5.3889406E-1,-1.4473093E-3,-0E0,-2.8206743E-4,8.388563E-4,5.7351856E-5,1.9492339E-3,9.82517E-4,-1.3157183E-4],"split_indices":[167,161,121,119,108,116,105,0,0,0,0,0,0,0,0],"split_type":[0,0,0,0,0,0,0,0,0,0,0,0,0,0,0],"sum_hessian":[2.9453345E2,2.2114601E2,7.338742E1,9.820741E1,1.2293861E2,5.2794685E1,2.0592737E1,7.560376E1,2.2603651E1,8.992627E1,3.3012337E1,1.0172823E1,4.2621864E1,1.042299E1,1.0169746E1],"tree_param":{"num_deleted":"0","num_feature":"172","num_nodes":"15","size_leaf_vector":"1"}},{"base_weights":[-0E0,-3.9898193E-1,5.6283265E-1,-6.062648E-1,-3.7139516E-2,5.4085758E-3,8.1244963E-1,-1.2570152E-3,5.2110023E-5,7.4979657E-4,-3.5552372E-4,7.413216E-4,-6.076114E-4,-0E0,1.6088653E-3],"categories":[],"categories_nodes":[],"categories_segments":[],"categories_sizes":[],"default_left":[0,0,0,0,0,0,0,0,0,0,0,0,0,0,0],"id":21,"left_children":[1,3,5,7,9,11,13,-1,-1,-1,-1,-1,-1,-1,-1],"loss_changes":[6.7121826E1,1.1157589E1,1.4353138E1,1.0051907E1,5.3616443E0,7.5487776E0,6.5215683E0,0E0,0E0,0E0,0E0,0E0,0E0,0E0,0E0],"parents":[2147483647,0,0,1,1,2,2,3,3,4,4,5,5,6,6],"right_children":[2,4,6,8,10,12,14,-1,-1,-1,-1,-1,-1,-1,-1],"split_conditions":[1.8E0,-1.7857143E0,1.748373E-2,9.883557E-2,-9.801317E-2,-9.865922E-2,-1.4600495E-1,-1.2570152E-3,5.2110023E-5,7.4979657E-4,-3.5552372E-4,7.413216E-4,-6.076114E-4,-0E0,1.6088653E-3],"split_indices":[165,166,118,0,50,37,139,0,0,0,0,0,0,0,0],"split_type":[0,0,0,0,0,0,0,0,0,0,0,0,0,0,0],"sum_hessian":[2.930211E2,1.742228E2,1.187983E2,1.03441216E2,7.078158E1,4.1959885E1,7.683842E1,9.175827E1,1.1682948E1,1.1913451E1,5.8868126E1,2.3088297E1,1.8871588E1,1.0164082E1,6.667434E1],"tree_param":{"num_deleted":"0","num_feature":"172","num_nodes":"15","size_leaf_vector":"1"}},{"base_weights":[-1.7223395E-2,-4.207678E-1,5.413022E-1,-5.382298E-1,5.6571944E-4,-0E0,8.1315356E-1,-1.2564139E-3,-1.1688033E-4,4.3217692E-4,-7.871421E-4,3.0400994E-5,1.6261253E-3],"categories":[],"categories_nodes":[],"categories_segments":[],"categories_sizes":[],"default_left":[0,0,0,0,0,0,0,0,0,0,0,0,0],"id":22,"left_children":[1,3,5,7,-1,9,11,-1,-1,-1,-1,-1,-1],"loss_changes":[6.61522E1,1.6624298E1,1.7287094E1,1.056517E1,0E0,5.275932E0,4.287529E0,0E0,0E0,0E0,0E0,0E0,0E0],"parents":[2147483647,0,0,1,1,2,2,3,3,5,5,6,6],"right_children":[2,4,6,8,-1,10,12,-1,-1,-1,-1,-1,-1],"split_conditions":[1.2222222E0,4.7612855E-1,2.4131436E-3,-1.7E0,5.6571944E-4,5.3770848E-2,2.25E0,-1.2564139E-3,-1.1688033E-4,4.3217692E-4,-7.871421E-4,3.0400994E-5,1.6261253E-3],"split_indices":[166,19,116,166,0,155,165,0,0,0,0,0,0],"split_type":[0,0,0,0,0,0,0,0,0,0,0,0,0],"sum_hessian":[2.8783658E2,1.710281E2,1.1680848E2,1.523988E2,1.8629303E1,4.095562E1,7.585286E1,1.0370808E2,4.8690723E1,2.8295397E1,1.2660223E1,1.38947115E1,6.195815E1],"tree_param":{"num_deleted":"0","num_feature":"172","num_nodes":"13","size_leaf_vector":"1"}},{"base_weights":[-0E0,-4.2637178E-1,5.686257E-1,-1.00344636E-1,-7.7801555E-1,7.004144E-1,-1.7534498E-4,-5.1920075E-4,3.1131544E-4,-1.6239583E-3,-0E0,4.894684E-4,1.6406906E-3],"categories":[],"categories_nodes":[],"categories_segments":[],"categories_sizes":[],"default_left":[0,0,0,0,0,0,0,0,0,0,0,0,0],"id":23,"left_children":[1,3,5,7,9,11,-1,-1,-1,-1,-1,-1,-1],"loss_changes":[7.3594246E1,1.7015057E1,1.3565182E1,6.0876303E0,8.713219E0,6.2842216E0,0E0,0E0,0E0,0E0,0E0,0E0,0E0],"parents":[2147483647,0,0,1,1,2,2,3,3,4,4,5,5],"right_children":[2,4,6,8,10,12,-1,-1,-1,-1,-1,-1,-1],"split_conditions":[8.035714E-1,4E-1,4.8713404E-1,5.641622E0,1.6837955E-2,5.311715E0,-1.7534498E-4,-5.1920075E-4,3.1131544E-4,-1.6239583E-3,-0E0,4.894684E-4,1.6406906E-3],"split_indices":[166,169,64,78,119,79,0,0,0,0,0,0,0],"split_type":[0,0,0,0,0,0,0,0,0,0,0,0,0],"sum_hessian":[2.972683E2,1.7228395E2,1.2498435E2,9.668123E1,7.560272E1,1.08352684E2,1.6631674E1,6.3379368E1,3.330186E1,6.1939606E1,1.3663119E1,4.7118286E1,6.1234394E1],"tree_param":{"num_deleted":"0","num_feature":"172","num_nodes":"13","size_leaf_vector":"1"}},{"base_weights":[2.319551E-2,-2.236314E-1,7.619307E-1,-5.5594796E-1,2.731027E-2,9.0116864E-1,-0E0,-1.202071E-3,-0E0,4.998475E-4,-3.0783223E-4,8.83926E-6,1.7966034E-3],"categories":[],"categories_nodes":[],"categories_segments":[],"categories_sizes":[],"default_left":[0,0,0,0,0,0,0,0,0,0,0,0,0],"id":24,"left_children":[1,3,5,7,9,11,-1,-1,-1,-1,-1,-1,-1],"loss_changes":[5.7985947E1,2.0804522E1,8.376583E0,8.375633E0,7.279911E0,4.340458E0,0E0,0E0,0E0,0E0,0E0,0E0,0E0],"parents":[2147483647,0,0,1,1,2,2,3,3,4,4,5,5],"right_children":[2,4,6,8,10,12,-1,-1,-1,-1,-1,-1,-1],"split_conditions":[4.642857E0,-7.777778E-2,1.3828923E-1,4.62467E-1,4.2259145E-1,-2.8204858E-1,-0E0,-1.202071E-3,-0E0,4.998475E-4,-3.0783223E-4,8.83926E-6,1.7966034E-3],"split_indices":[167,163,140,18,65,140,0,0,0,0,0,0,0],"split_type":[0,0,0,0,0,0,0,0,0,0,0,0,0],"sum_hessian":[3.0122742E2,2.2439731E2,7.683012E1,1.0022161E2,1.24175705E2,6.418583E1,1.2644285E1,8.183732E1,1.838429E1,6.1074615E1,6.310109E1,1.1650908E1,5.253492E1],"tree_param":{"num_deleted":"0","num_feature":"172","num_nodes":"13","size_leaf_vector":"1"}},{"base_weights":[-2.8295826E-2,-2.9912806E-1,7.1441925E-1,-6.342089E-1,-0E0,1.7030204E-3,1.6344342E-1,-0E0,-1.3614913E-3,5.6349987E-4,-4.936574E-4,1.0512E-3,-1.4478723E-4],"categories":[],"categories_nodes":[],"categories_segments":[],"categories_sizes":[],"default_left":[0,0,0,0,0,0,0,0,0,0,0,0,0],"id":25,"left_children":[1,3,5,7,9,-1,11,-1,-1,-1,-1,-1,-1],"loss_changes":[5.846948E1,2.10305E1,6.6376495E0,7.5216484E0,1.1491595E1,0E0,5.4364257E0,0E0,0E0,0E0,0E0,0E0,0E0],"parents":[2147483647,0,0,1,1,2,2,3,3,4,4,6,6],"right_children":[2,4,6,8,10,-1,12,-1,-1,-1,-1,-1,-1],"split_conditions":[4.4E0,0E0,-1.0619122E-2,4.6333026E-2,-1.359925E-2,1.7030204E-3,-1.4130984E-1,-0E0,-1.3614913E-3,5.6349987E-4,-4.936574E-4,1.0512E-3,-1.4478723E-4],"split_indices":[167,161,123,59,154,0,38,0,0,0,0,0,0],"split_type":[0,0,0,0,0,0,0,0,0,0,0,0,0],"sum_hessian":[2.8981934E2,2.1721503E2,7.260432E1,9.774054E1,1.1947449E2,4.3347622E1,2.9256697E1,2.187311E1,7.586743E1,5.265221E1,6.682228E1,1.3387763E1,1.5868934E1],"tree_param":{"num_deleted":"0","num_feature":"172","num_nodes":"13","size_leaf_vector":"1"}},{"base_weights":[1.3364677E-2,-7.0133245E-1,2.8149405E-1,-0E0,-8.593039E-1,-4.0157195E-3,6.090482E-1,-1.2030907E-4,-1.72241E-3,2.6140406E-4,-8.2651345E-4,-0E0,1.3296761E-3],"categories":[],"categories_nodes":[],"categories_segments":[],"categories_sizes":[],"default_left":[0,0,0,0,0,0,0,0,0,0,0,0,0],"id":26,"left_children":[1,3,5,-1,7,9,11,-1,-1,-1,-1,-1,-1],"loss_changes":[5.6312626E1,1.1169636E1,2.2757006E1,0E0,3.0701675E0,9.750539E0,1.2309418E1,0E0,0E0,0E0,0E0,0E0,0E0],"parents":[2147483647,0,0,1,1,2,2,4,4,5,5,6,6],"right_children":[2,4,6,-1,8,10,12,-1,-1,-1,-1,-1,-1],"split_conditions":[-3.8854137E-2,3.9261496E-1,1.6E0,-0E0,-8.8528395E-3,3.5097115E-2,-4.3774224E-3,-1.2030907E-4,-1.72241E-3,2.6140406E-4,-8.2651345E-4,-0E0,1.3296761E-3],"split_indices":[119,43,165,0,123,96,119,0,0,0,0,0,0],"split_type":[0,0,0,0,0,0,0,0,0,0,0,0,0],"sum_hessian":[2.9353577E2,7.5129585E1,2.1840619E2,1.1188316E1,6.394127E1,1.1330587E2,1.0510033E2,1.3179138E1,5.076213E1,8.199214E1,3.1313732E1,1.787992E1,8.7220406E1],"tree_param":{"num_deleted":"0","num_feature":"172","num_nodes":"13","size_leaf_vector":"1"}},{"base_weights":[2.0050729E-4,-2.2825652E-1,7.56038E-1,-6.397934E-1,-1.801308E-2,-0E0,8.948171E-1,-0E0,-1.4130132E-3,6.6950254E-4,-2.7229494E-4,-0E0,1.8540627E-3],"categories":[],"categories_nodes":[],"categories_segments":[],"categories_sizes":[],"default_left":[0,0,0,0,0,0,0,0,0,0,0,0,0],"id":27,"left_children":[1,3,5,7,9,-1,11,-1,-1,-1,-1,-1,-1],"loss_changes":[5.415669E1,1.7694036E1,8.570641E0,1.0071089E1,8.392063E0,0E0,6.9491043E0,0E0,0E0,0E0,0E0,0E0,0E0],"parents":[2147483647,0,0,1,1,2,2,3,3,4,4,6,6],"right_children":[2,4,6,8,10,-1,12,-1,-1,-1,-1,-1,-1],"split_conditions":[4.5333333E0,-4.6984904E-2,5.1828127E0,3.9465797E-1,-4.5E0,-0E0,-1.6828278E-3,-0E0,-1.4130132E-3,6.6950254E-4,-2.7229494E-4,-0E0,1.8540627E-3],"split_indices":[167,117,6,42,170,0,116,0,0,0,0,0,0],"split_type":[0,0,0,0,0,0,0,0,0,0,0,0,0],"sum_hessian":[2.9626773E2,2.2615839E2,7.010936E1,6.866664E1,1.5749174E2,1.0411432E1,5.9697926E1,1.1686613E1,5.6980026E1,3.2529972E1,1.2496177E2,1.2155163E1,4.7542763E1],"tree_param":{"num_deleted":"0","num_feature":"172","num_nodes":"13","size_leaf_vector":"1"}},{"base_weights":[2.5195649E-2,-6.264869E-1,3.2741353E-1,-7.924132E-1,-0E0,7.156444E-1,1.4621819E-3,-0E0,-1.5820378E-3,-3.8850142E-4,2.6104698E-4,1.4268222E-3,-0E0,-7.1759E-4,3.558743E-4],"categories":[],"categories_nodes":[],"categories_segments":[],"categories_sizes":[],"default_left":[0,0,0,0,0,0,0,0,0,0,0,0,0,0,0],"id":28,"left_children":[1,3,5,7,9,11,13,-1,-1,-1,-1,-1,-1,-1,-1],"loss_changes":[6.0319744E1,8.992611E0,2.4966818E1,5.2136116E0,1.0390532E0,6.436577E0,1.01035385E1,0E0,0E0,0E0,0E0,0E0,0E0,0E0,0E0],"parents":[2147483647,0,0,1,1,2,2,3,3,4,4,5,5,6,6],"right_children":[2,4,6,8,10,12,14,-1,-1,-1,-1,-1,-1,-1,-1],"split_conditions":[-1.904762E-1,5E-1,-8.37438E-3,4.059866E-1,4.4543755E-1,7E-1,-3E0,-0E0,-1.5820378E-3,-3.8850142E-4,2.6104698E-4,1.4268222E-3,-0E0,-7.1759E-4,3.558743E-4],"split_indices":[162,44,123,42,18,94,164,0,0,0,0,0,0,0,0],"split_type":[0,0,0,0,0,0,0,0,0,0,0,0,0,0,0],"sum_hessian":[3.0370624E2,9.154087E1,2.1216537E2,7.015728E1,2.1383587E1,9.0242775E1,1.2192259E2,1.0944556E1,5.9212727E1,1.0946786E1,1.0436801E1,7.808046E1,1.2162313E1,3.355833E1,8.8364265E1],"tree_param":{"num_deleted":"0","num_feature":"172","num_nodes":"15","size_leaf_vector":"1"}},{"base_weights":[1.7135295E-3,-2.5540787E-1,7.865651E-1,-6.559589E-1,6.587939E-2,1.8844726E-3,1.7375655E-1,-1.3195662E-3,-0E0,7.5630064E-4,-1.2917013E-4,6.7081925E-4,-0E0],"categories":[],"categories_nodes":[],"categories_segments":[],"categories_sizes":[],"default_left":[0,0,0,0,0,0,0,0,0,0,0,0,0],"id":29,"left_children":[1,3,5,7,9,-1,11,-1,-1,-1,-1,-1,-1],"loss_changes":[6.2955643E1,3.1093552E1,9.177017E0,7.6626244E0,7.6492286E0,0E0,1.9539143E0,0E0,0E0,0E0,0E0,0E0,0E0],"parents":[2147483647,0,0,1,1,2,2,3,3,4,4,6,6],"right_children":[2,4,6,8,10,-1,12,-1,-1,-1,-1,-1,-1],"split_conditions":[4.4E0,0E0,-1.0926775E-2,4.7675577E-1,-1.2243783E-2,1.8844726E-3,1.7674483E-2,-1.3195662E-3,-0E0,7.5630064E-4,-1.2917013E-4,6.7081925E-4,-0E0],"split_indices":[167,161,122,18,121,0,98,0,0,0,0,0,0],"split_type":[0,0,0,0,0,0,0,0,0,0,0,0,0],"sum_hessian":[2.960055E2,2.2169812E2,7.430739E1,1.0149621E2,1.2020191E2,4.4809338E1,2.9498049E1,8.907116E1,1.2425048E1,3.7475822E1,8.272609E1,1.6360123E1,1.3137925E1],"tree_param":{"num_deleted":"0","num_feature":"172","num_nodes":"13","size_leaf_vector":"1"}},{"base_weights":[4.6102818E-2,-3.1378925E-1,6.8314654E-1,-6.345436E-1,-0E0,-0E0,8.03148E-1,-0E0,-1.4345273E-3,-3.4156235E-4,4.8188397E-4,1.690072E-3,-0E0],"categories":[],"categories_nodes":[],"categories_segments":[],"categories_sizes":[],"default_left":[0,0,0,0,0,0,0,0,0,0,0,0,0],"id":30,"left_children":[1,3,5,7,9,-1,11,-1,-1,-1,-1,-1,-1],"loss_changes":[7.013352E1,1.7623981E1,1.0809578E1,8.69104E0,5.5645046E0,0E0,1.2359886E1,0E0,0E0,0E0,0E0,0E0,0E0],"parents":[2147483647,0,0,1,1,2,2,3,3,4,4,6,6],"right_children":[2,4,6,8,10,-1,12,-1,-1,-1,-1,-1,-1],"split_conditions":[1.8E0,-1.9768527E-2,3.3333334E-1,1.662251E-2,1.8888496E-2,-0E0,4.7942713E-1,-0E0,-1.4345273E-3,-3.4156235E-4,4.8188397E-4,1.690072E-3,-0E0],"split_indices":[166,117,45,51,2,0,64,0,0,0,0,0,0],"split_type":[0,0,0,0,0,0,0,0,0,0,0,0,0],"sum_hessian":[2.9350247E2,1.8546506E2,1.0803743E2,8.633906E1,9.9126E1,1.4134346E1,9.390308E1,2.3376434E1,6.296262E1,6.336497E1,3.5761024E1,7.678195E1,1.712113E1],"tree_param":{"num_deleted":"0","num_feature":"172","num_nodes":"13","size_leaf_vector":"1"}},{"base_weights":[-3.2469783E-2,-3.285925E-1,8.0061173E-1,-6.841996E-1,-1.5374612E-2,9.6443325E-1,1.1806354E-4,-1.4240284E-3,-0E0,2.540873E-4,-5.1384873E-4,1.990863E-3,2.7733558E-4],"categories":[],"categories_nodes":[],"categories_segments":[],"categories_sizes":[],"default_left":[0,0,0,0,0,0,0,0,0,0,0,0,0],"id":31,"left_children":[1,3,5,7,9,11,-1,-1,-1,-1,-1,-1,-1],"loss_changes":[7.286749E1,2.275087E1,5.5421867E0,9.98056E0,6.3981824E0,3.3296318E0,0E0,0E0,0E0,0E0,0E0,0E0,0E0],"parents":[2147483647,0,0,1,1,2,2,3,3,4,4,5,5],"right_children":[2,4,6,8,10,12,-1,-1,-1,-1,-1,-1,-1],"split_conditions":[4.4E0,0E0,5.658321E-3,4.7178552E-1,5.304802E0,2.5E-1,1.1806354E-4,-1.4240284E-3,-0E0,2.540873E-4,-5.1384873E-4,1.990863E-3,2.7733558E-4],"split_indices":[167,161,121,18,52,129,0,0,0,0,0,0,0],"split_type":[0,0,0,0,0,0,0,0,0,0,0,0,0],"sum_hessian":[2.940116E2,2.2145213E2,7.255947E1,9.677563E1,1.246765E2,5.4709286E1,1.7850185E1,8.2115486E1,1.466014E1,7.274549E1,5.1931007E1,4.0351402E1,1.43578825E1],"tree_param":{"num_deleted":"0","num_feature":"172","num_nodes":"13","size_leaf_vector":"1"}},{"base_weights":[1.07748695E-2,-3.2649237E-1,5.410272E-1,-0E0,-6.014084E-1,3.5754953E-2,7.9855824E-1,6.569078E-4,-3.3668132E-4,-1.2365162E-3,-0E0,1.4277092E-3,-4.0464685E-4,1.6107261E-3,-0E0],"categories":[],"categories_nodes":[],"categories_segments":[],"categories_sizes":[],"default_left":[0,0,0,0,0,0,0,0,0,0,0,0,0,0,0],"id":32,"left_children":[1,3,5,7,9,11,13,-1,-1,-1,-1,-1,-1,-1,-1],"loss_changes":[5.676771E1,1.5315926E1,1.3513756E1,6.5975933E0,8.259041E0,1.3176195E1,5.3387756E0,0E0,0E0,0E0,0E0,0E0,0E0,0E0,0E0],"parents":[2147483647,0,0,1,1,2,2,3,3,4,4,5,5,6,6],"right_children":[2,4,6,8,10,12,14,-1,-1,-1,-1,-1,-1,-1,-1],"split_conditions":[3.9058343E-2,4.4900775E-1,6E-1,-2.5077388E-2,4.879474E-1,-2.5268659E-2,4.7521368E-1,6.569078E-4,-3.3668132E-4,-1.2365162E-3,-0E0,1.4277092E-3,-4.0464685E-4,1.6107261E-3,-0E0],"split_indices":[103,66,45,158,18,123,64,0,0,0,0,0,0,0,0],"split_type":[0,0,0,0,0,0,0,0,0,0,0,0,0,0,0],"sum_hessian":[3.0617734E2,1.8424196E2,1.2193537E2,9.019768E1,9.404429E1,4.6869865E1,7.5065506E1,2.483751E1,6.536017E1,8.335908E1,1.0685213E1,1.3132073E1,3.373779E1,6.1670567E1,1.3394939E1],"tree_param":{"num_deleted":"0","num_feature":"172","num_nodes":"15","size_leaf_vector":"1"}},{"base_weights":[-4.1518297E-2,-4.9648187E-1,4.1916835E-1,-1.3613221E-1,-7.920078E-1,5.1488765E-2,7.950061E-1,4.5973097E-4,-5.3561555E-4,-1.5675299E-3,-0E0,-2.7739655E-4,4.393168E-4,1.5706185E-3,-0E0],"categories":[],"categories_nodes":[],"categories_segments":[],"categories_sizes":[],"default_left":[0,0,0,0,0,0,0,0,0,0,0,0,0,0,0],"id":33,"left_children":[1,3,5,7,9,11,13,-1,-1,-1,-1,-1,-1,-1,-1],"loss_changes":[6.2219265E1,1.2772739E1,1.6913235E1,5.748239E0,5.0358276E0,3.8513124E0,2.877411E0,0E0,0E0,0E0,0E0,0E0,0E0,0E0,0E0],"parents":[2147483647,0,0,1,1,2,2,3,3,4,4,5,5,6,6],"right_children":[2,4,6,8,10,12,14,-1,-1,-1,-1,-1,-1,-1,-1],"split_conditions":[2.702419E-4,5.3333336E-1,4.3333335E0,-1.3748635E-1,7.2727275E-1,-8.3333336E-2,2.4579072E-2,4.5973097E-4,-5.3561555E-4,-1.5675299E-3,-0E0,-2.7739655E-4,4.393168E-4,1.5706185E-3,-0E0],"split_indices":[119,95,164,143,47,129,50,0,0,0,0,0,0,0,0],"split_type":[0,0,0,0,0,0,0,0,0,0,0,0,0,0,0],"sum_hessian":[2.883001E2,1.4847705E2,1.3982307E2,7.4311874E1,7.416518E1,7.719435E1,6.262872E1,1.5895481E1,5.8416393E1,6.322537E1,1.0939804E1,3.0030811E1,4.716354E1,5.1729305E1,1.0899414E1],"tree_param":{"num_deleted":"0","num_feature":"172","num_nodes":"15","size_leaf_vector":"1"}},{"base_weights":[1.3438437E-2,-4.7828612E-1,3.918692E-1,-0E0,-6.452293E-1,-0E0,7.452176E-1,5.358939E-4,-7.752816E-4,-0E0,-1.3113592E-3,2.2165908E-4,-7.473053E-4,1.5322703E-3,-0E0],"categories":[],"categories_nodes":[],"categories_segments":[],"categories_sizes":[],"default_left":[0,0,0,0,0,0,0,0,0,0,0,0,0,0,0],"id":34,"left_children":[1,3,5,7,9,11,13,-1,-1,-1,-1,-1,-1,-1,-1],"loss_changes":[5.6635185E1,9.041304E0,2.44425E1,6.2508173E0,6.3652573E0,4.9428144E0,1.0329887E1,0E0,0E0,0E0,0E0,0E0,0E0,0E0,0E0],"parents":[2147483647,0,0,1,1,2,2,3,3,4,4,5,5,6,6],"right_children":[2,4,6,8,10,12,14,-1,-1,-1,-1,-1,-1,-1,-1],"split_conditions":[-4.7512855E-3,-9.643329E-3,1.8E0,1.6E0,5.079102E0,5.0943207E-2,2.3046777E-1,5.358939E-4,-7.752816E-4,-0E0,-1.3113592E-3,2.2165908E-4,-7.473053E-4,1.5322703E-3,-0E0],"split_indices":[119,121,165,171,55,96,71,0,0,0,0,0,0,0,0],"split_type":[0,0,0,0,0,0,0,0,0,0,0,0,0,0,0],"sum_hessian":[2.9847083E2,1.2562513E2,1.728457E2,3.6541286E1,8.908384E1,8.370622E1,8.913948E1,1.9628456E1,1.691283E1,1.2927955E1,7.615589E1,6.6561066E1,1.7145153E1,7.675307E1,1.238641E1],"tree_param":{"num_deleted":"0","num_feature":"172","num_nodes":"15","size_leaf_vector":"1"}},{"base_weights":[5.1553365E-2,-4.81974E-1,3.8432613E-1,-0E0,-7.869358E-1,9.6987905E-3,7.591971E-1,-5.979852E-4,6.962097E-4,-1.6025541E-3,-0E0,-9.928219E-4,2.4306065E-4,1.584459E-3,-0E0],"categories":[],"categories_nodes":[],"categories_segments":[],"categories_sizes":[],"default_left":[0,0,0,0,0,0,0,0,0,0,0,0,0,0,0],"id":35,"left_children":[1,3,5,7,9,11,13,-1,-1,-1,-1,-1,-1,-1,-1],"loss_changes":[5.2378292E1,1.3786291E1,2.3616377E1,7.2052145E0,4.7234306E0,6.4635124E0,7.7608604E0,0E0,0E0,0E0,0E0,0E0,0E0,0E0,0E0],"parents":[2147483647,0,0,1,1,2,2,3,3,4,4,5,5,6,6],"right_children":[2,4,6,8,10,12,14,-1,-1,-1,-1,-1,-1,-1,-1],"split_conditions":[0E0,5.505729E0,5.0900914E-2,4.303876E-1,4.1556156E-1,-8.7331325E-2,8.9384E-2,-5.979852E-4,6.962097E-4,-1.6025541E-3,-0E0,-9.928219E-4,2.4306065E-4,1.584459E-3,-0E0],"split_indices":[161,55,0,19,56,117,154,0,0,0,0,0,0,0,0],"split_type":[0,0,0,0,0,0,0,0,0,0,0,0,0,0,0],"sum_hessian":[2.8928107E2,1.0671331E2,1.8256776E2,4.672486E1,5.998845E1,9.7566956E1,8.500081E1,2.9602135E1,1.7122726E1,4.8787247E1,1.1201202E1,1.0942585E1,8.6624374E1,6.7891495E1,1.710931E1],"tree_param":{"num_deleted":"0","num_feature":"172","num_nodes":"15","size_leaf_vector":"1"}},{"base_weights":[-0E0,-3.94044E-1,5.529383E-1,-6.0193145E-1,-1.4101544E-2,-0E0,7.469572E-1,-0E0,-1.1852029E-3,-5.2707875E-4,3.6681007E-4,-3.0062452E-4,4.1464172E-4,-0E0,1.5052283E-3],"categories":[],"categories_nodes":[],"categories_segments":[],"categories_sizes":[],"default_left":[0,0,0,0,0,0,0,0,0,0,0,0,0,0,0],"id":36,"left_children":[1,3,5,7,9,11,13,-1,-1,-1,-1,-1,-1,-1,-1],"loss_changes":[6.568935E1,1.1840715E1,1.4080036E1,5.6513977E0,5.141719E0,1.5355804E0,8.701885E0,0E0,0E0,0E0,0E0,0E0,0E0,0E0,0E0],"parents":[2147483647,0,0,1,1,2,2,3,3,4,4,5,5,6,6],"right_children":[2,4,6,8,10,12,14,-1,-1,-1,-1,-1,-1,-1,-1],"split_conditions":[8.035714E-1,-5.3508133E-3,6.033974E-3,3.9148307E-1,4.3866932E-1,9.221322E-2,-6.5792836E-2,-0E0,-1.1852029E-3,-5.2707875E-4,3.6681007E-4,-3.0062452E-4,4.1464172E-4,-0E0,1.5052283E-3],"split_indices":[166,119,118,43,19,0,113,0,0,0,0,0,0,0,0],"split_type":[0,0,0,0,0,0,0,0,0,0,0,0,0,0,0],"sum_hessian":[2.940002E2,1.7211565E2,1.2188458E2,1.0429304E2,6.78226E1,3.1525778E1,9.03588E1,1.069749E1,9.359554E1,3.5529827E1,3.2292778E1,2.0853539E1,1.0672239E1,1.1641505E1,7.87173E1],"tree_param":{"num_deleted":"0","num_feature":"172","num_nodes":"15","size_leaf_vector":"1"}},{"base_weights":[-0E0,-3.9155012E-1,4.5338663E-1,-6.8945E-1,-6.785577E-2,6.6596943E-1,-0E0,-0E0,-1.437403E-3,-4.7040122E-4,5.402193E-4,-4.2534566E-6,1.4946256E-3,-5.945995E-4,2.1880014E-4],"categories":[],"categories_nodes":[],"categories_segments":[],"categories_sizes":[],"default_left":[0,0,0,0,0,0,0,0,0,0,0,0,0,0,0],"id":37,"left_children":[1,3,5,7,9,11,13,-1,-1,-1,-1,-1,-1,-1,-1],"loss_changes":[5.406091E1,1.3512396E1,1.3693766E1,7.695713E0,6.986246E0,1.4812981E1,2.2812572E0,0E0,0E0,0E0,0E0,0E0,0E0,0E0,0E0],"parents":[2147483647,0,0,1,1,2,2,3,3,4,4,5,5,6,6],"right_children":[2,4,6,8,10,12,14,-1,-1,-1,-1,-1,-1,-1,-1],"split_conditions":[5.091264E-3,0E0,4.0588E-3,-4.7500066E-2,1.2949665E-1,-9.7222224E-2,-1.0357695E-1,-0E0,-1.437403E-3,-4.7040122E-4,5.402193E-4,-4.2534566E-6,1.4946256E-3,-5.945995E-4,2.1880014E-4],"split_indices":[119,161,122,159,8,163,139,0,0,0,0,0,0,0,0],"split_type":[0,0,0,0,0,0,0,0,0,0,0,0,0,0,0],"sum_hessian":[2.982173E2,1.6390366E2,1.3431363E2,7.792406E1,8.59796E1,9.1148735E1,4.31649E1,1.2939451E1,6.498461E1,6.2383102E1,2.3596498E1,1.7133324E1,7.401541E1,1.1175002E1,3.19899E1],"tree_param":{"num_deleted":"0","num_feature":"172","num_nodes":"15","size_leaf_vector":"1"}},{"base_weights":[3.3208814E-3,-3.3890194E-1,5.6230104E-1,2.3763355E-2,-6.360903E-1,7.763245E-1,-0E0,-1.7568456E-4,8.2608085E-4,1.5231449E-4,-1.4168365E-3,5.583701E-4,1.9129724E-3,-3.5487913E-4,5.1502575E-4],"categories":[],"categories_nodes":[],"categories_segments":[],"categories_sizes":[],"default_left":[0,0,0,0,0,0,0,0,0,0,0,0,0,0,0],"id":38,"left_children":[1,3,5,7,9,11,13,-1,-1,-1,-1,-1,-1,-1,-1],"loss_changes":[5.704683E1,2.1349648E1,1.3628845E1,5.8154106E0,1.57170105E1,6.18898E0,2.4036977E0,0E0,0E0,0E0,0E0,0E0,0E0,0E0,0E0],"parents":[2147483647,0,0,1,1,2,2,3,3,4,4,5,5,6,6],"right_children":[2,4,6,8,10,12,14,-1,-1,-1,-1,-1,-1,-1,-1],"split_conditions":[1.7503187E-2,4.4725588E-1,2.9127535E-3,8.035714E-1,3.9068735E-1,5E0,-1.0458924E-1,-1.7568456E-4,8.2608085E-4,1.5231449E-4,-1.4168365E-3,5.583701E-4,1.9129724E-3,-3.5487913E-4,5.1502575E-4],"split_indices":[119,66,122,166,42,164,63,0,0,0,0,0,0,0,0],"split_type":[0,0,0,0,0,0,0,0,0,0,0,0,0,0,0],"sum_hessian":[2.8703516E2,1.7530943E2,1.1172572E2,7.553044E1,9.977899E1,7.947545E1,3.225027E1,5.569432E1,1.9836124E1,1.6152245E1,8.362675E1,3.991501E1,3.956044E1,1.9098421E1,1.3151849E1],"tree_param":{"num_deleted":"0","num_feature":"172","num_nodes":"15","size_leaf_vector":"1"}},{"base_weights":[-8.802824E-3,-2.85384E-1,6.6018915E-1,-6.6067636E-1,-8.4414537E-4,-0E0,7.760565E-1,-1.4187666E-3,-0E0,3.7727234E-4,-3.0765892E-4,-0E0,1.5307781E-3],"categories":[],"categories_nodes":[],"categories_segments":[],"categories_sizes":[],"default_left":[0,0,0,0,0,0,0,0,0,0,0,0,0],"id":39,"left_children":[1,3,5,7,9,-1,11,-1,-1,-1,-1,-1,-1],"loss_changes":[5.38578E1,2.0687078E1,6.9014435E0,6.357647E0,4.9632163E0,0E0,3.934578E0,0E0,0E0,0E0,0E0,0E0,0E0],"parents":[2147483647,0,0,1,1,2,2,3,3,4,4,6,6],"right_children":[2,4,6,8,10,-1,12,-1,-1,-1,-1,-1,-1],"split_conditions":[4.6E0,-1.5277778E-1,-9.799279E-2,-3.129854E-2,-4.3210285E-3,-0E0,-2.8204858E-1,-1.4187666E-3,-0E0,3.7727234E-4,-3.0765892E-4,-0E0,1.5307781E-3],"split_indices":[165,163,113,105,49,0,140,0,0,0,0,0,0],"split_type":[0,0,0,0,0,0,0,0,0,0,0,0,0],"sum_hessian":[2.9025568E2,2.103085E2,7.994716E1,8.363541E1,1.26673096E2,1.1650143E1,6.829702E1,6.3744564E1,1.989084E1,4.790591E1,7.876719E1,1.0393798E1,5.790322E1],"tree_param":{"num_deleted":"0","num_feature":"172","num_nodes":"13","size_leaf_vector":"1"}},{"base_weights":[-0E0,-4.9757835E-1,3.5434777E-1,-0E0,-6.321629E-1,-0E0,7.060809E-1,-1.2776311E-4,4.595308E-4,-1.2523168E-3,-0E0,6.504346E-4,-3.2300374E-4,1.5291604E-3,-0E0],"categories":[],"categories_nodes":[],"categories_segments":[],"categories_sizes":[],"default_left":[0,0,0,0,0,0,0,0,0,0,0,0,0,0,0],"id":40,"left_children":[1,3,5,7,9,11,13,-1,-1,-1,-1,-1,-1,-1,-1],"loss_changes":[5.4798508E1,1.0310257E1,2.2731003E1,1.0555396E0,6.905609E0,6.2614765E0,8.154663E0,0E0,0E0,0E0,0E0,0E0,0E0,0E0,0E0],"parents":[2147483647,0,0,1,1,2,2,3,3,4,4,5,5,6,6],"right_children":[2,4,6,8,10,12,14,-1,-1,-1,-1,-1,-1,-1,-1],"split_conditions":[-5.3508133E-3,-1.2850831E-2,1.8E0,-6.6531904E-2,4.50899E-1,-4.0001846E-3,1.736866E-2,-1.2776311E-4,4.595308E-4,-1.2523168E-3,-0E0,6.504346E-4,-3.2300374E-4,1.5291604E-3,-0E0],"split_indices":[119,122,165,84,70,96,50,0,0,0,0,0,0,0,0],"split_type":[0,0,0,0,0,0,0,0,0,0,0,0,0,0,0],"sum_hessian":[3.0093015E2,1.2815097E2,1.7277919E2,2.43604E1,1.03790565E2,8.642809E1,8.635109E1,1.4172266E1,1.0188133E1,9.333772E1,1.0452843E1,2.5564934E1,6.0863163E1,6.554537E1,2.0805717E1],"tree_param":{"num_deleted":"0","num_feature":"172","num_nodes":"15","size_leaf_vector":"1"}},{"base_weights":[4.037159E-2,-3.5306406E-1,5.0915027E-1,-1.6761636E-2,-8.2036555E-1,1.5758796E-2,8.2189363E-1,2.1819794E-4,-6.651032E-4,-0E0,-1.6375381E-3,-3.663537E-4,5.628192E-4,1.674398E-3,5.7611614E-5],"categories":[],"categories_nodes":[],"categories_segments":[],"categories_sizes":[],"default_left":[0,0,0,0,0,0,0,0,0,0,0,0,0,0,0],"id":41,"left_children":[1,3,5,7,9,11,13,-1,-1,-1,-1,-1,-1,-1,-1],"loss_changes":[5.6300545E1,2.2498217E1,1.9077732E1,6.2391553E0,3.159008E0,4.9540386E0,5.5400505E0,0E0,0E0,0E0,0E0,0E0,0E0,0E0,0E0],"parents":[2147483647,0,0,1,1,2,2,3,3,4,4,5,5,6,6],"right_children":[2,4,6,8,10,12,14,-1,-1,-1,-1,-1,-1,-1,-1],"split_conditions":[6.033974E-3,4.6607163E-2,1.9E0,4.7755107E-1,4.2857143E-1,8.323416E-3,2.9512603E-2,2.1819794E-4,-6.651032E-4,-0E0,-1.6375381E-3,-3.663537E-4,5.628192E-4,1.674398E-3,5.7611614E-5],"split_indices":[118,143,166,65,94,1,50,0,0,0,0,0,0,0,0],"split_type":[0,0,0,0,0,0,0,0,0,0,0,0,0,0,0],"sum_hessian":[2.952136E2,1.5720857E2,1.3800504E2,9.7706764E1,5.950181E1,5.9097244E1,7.890779E1,6.5609344E1,3.209742E1,1.1191946E1,4.830986E1,2.8569496E1,3.0527748E1,6.305763E1,1.5850163E1],"tree_param":{"num_deleted":"0","num_feature":"172","num_nodes":"15","size_leaf_vector":"1"}},{"base_weights":[-2.2991192E-2,-2.8933227E-1,6.897628E-1,-5.605635E-1,-0E0,9.954129E-1,7.0485376E-2,-0E0,-1.2777135E-3,2.181289E-4,-5.5754144E-4,2.244074E-4,2.0102416E-3,7.657021E-4,-2.0556778E-4],"categories":[],"categories_nodes":[],"categories_segments":[],"categories_sizes":[],"default_left":[0,0,0,0,0,0,0,0,0,0,0,0,0,0,0],"id":42,"left_children":[1,3,5,7,9,11,13,-1,-1,-1,-1,-1,-1,-1,-1],"loss_changes":[5.621562E1,1.6144562E1,1.1234249E1,1.2779175E1,5.2750254E0,1.891552E0,3.5670671E0,0E0,0E0,0E0,0E0,0E0,0E0,0E0,0E0],"parents":[2147483647,0,0,1,1,2,2,3,3,4,4,5,5,6,6],"right_children":[2,4,6,8,10,12,14,-1,-1,-1,-1,-1,-1,-1,-1],"split_conditions":[4.5333333E0,-2.5E0,-1.0619122E-2,-5.327345E-2,2.5644131E-2,-1.502085E-1,-1.3128893E-1,-0E0,-1.2777135E-3,2.181289E-4,-5.5754144E-4,2.244074E-4,2.0102416E-3,7.657021E-4,-2.0556778E-4],"split_indices":[167,167,123,157,99,13,37,0,0,0,0,0,0,0,0],"split_type":[0,0,0,0,0,0,0,0,0,0,0,0,0,0,0],"sum_hessian":[2.954602E2,2.200201E2,7.544011E1,1.0728787E2,1.1273223E2,4.5476585E1,2.9963526E1,2.1892736E1,8.5395134E1,7.6974335E1,3.57579E1,1.1128816E1,3.434777E1,1.4361528E1,1.5601997E1],"tree_param":{"num_deleted":"0","num_feature":"172","num_nodes":"15","size_leaf_vector":"1"}},{"base_weights":[5.3425673E-3,-3.745465E-1,4.82715E-1,1.13318704E-1,-5.4179806E-1,1.1004458E-1,8.781981E-1,-4.232334E-5,7.9275196E-4,-1.2997735E-3,-1.8022234E-4,-2.2649519E-4,9.313542E-4,1.8111073E-3,-0E0],"categories":[],"categories_nodes":[],"categories_segments":[],"categories_sizes":[],"default_left":[0,0,0,0,0,0,0,0,0,0,0,0,0,0,0],"id":43,"left_children":[1,3,5,7,9,11,13,-1,-1,-1,-1,-1,-1,-1,-1],"loss_changes":[5.536182E1,1.51007805E1,1.6783638E1,3.3280096E0,8.353542E0,9.648802E0,6.3931656E0,0E0,0E0,0E0,0E0,0E0,0E0,0E0,0E0],"parents":[2147483647,0,0,1,1,2,2,3,3,4,4,5,5,6,6],"right_children":[2,4,6,8,10,12,14,-1,-1,-1,-1,-1,-1,-1,-1],"split_conditions":[5.400884E-3,3.873781E-1,4.5333333E0,3.1283817E-1,-5.0066423E-2,-7.7281244E-2,3.2390219E-3,-4.232334E-5,7.9275196E-4,-1.2997735E-3,-1.8022234E-4,-2.2649519E-4,9.313542E-4,1.8111073E-3,-0E0],"split_indices":[118,43,167,41,84,87,122,0,0,0,0,0,0,0,0],"split_type":[0,0,0,0,0,0,0,0,0,0,0,0,0,0,0],"sum_hessian":[2.9596582E2,1.614397E2,1.3452611E2,3.65292E1,1.249105E2,7.594273E1,5.8583374E1,2.1618374E1,1.4910827E1,7.863948E1,4.627102E1,4.517756E1,3.0765179E1,4.6946808E1,1.1636566E1],"tree_param":{"num_deleted":"0","num_feature":"172","num_nodes":"15","size_leaf_vector":"1"}},{"base_weights":[2.0659042E-3,-3.6149067E-1,4.8127028E-1,-6.4687663E-1,-8.2777475E-4,6.9024396E-1,-0E0,-1.4467204E-3,-0E0,-2.9080518E-4,5.0506194E-4,-0E0,1.5232906E-3,3.4819057E-4,-5.9219846E-4],"categories":[],"categories_nodes":[],"categories_segments":[],"categories_sizes":[],"default_left":[0,0,0,0,0,0,0,0,0,0,0,0,0,0,0],"id":44,"left_children":[1,3,5,7,9,11,13,-1,-1,-1,-1,-1,-1,-1,-1],"loss_changes":[5.2023888E1,1.4827866E1,1.3811081E1,7.523464E0,3.6895428E0,9.810387E0,3.226594E0,0E0,0E0,0E0,0E0,0E0,0E0,0E0,0E0],"parents":[2147483647,0,0,1,1,2,2,3,3,4,4,5,5,6,6],"right_children":[2,4,6,8,10,12,14,-1,-1,-1,-1,-1,-1,-1,-1],"split_conditions":[4.2857143E-1,0E0,1.9348785E-2,4.4441086E-1,1.1972624E-2,2.9926002E-3,5.3649707E0,-1.4467204E-3,-0E0,-2.9080518E-4,5.0506194E-4,-0E0,1.5232906E-3,3.4819057E-4,-5.9219846E-4],"split_indices":[167,161,50,19,117,117,28,0,0,0,0,0,0,0,0],"split_type":[0,0,0,0,0,0,0,0,0,0,0,0,0,0,0],"sum_hessian":[2.8899753E2,1.6096367E2,1.2803386E2,8.3166084E1,7.7797585E1,8.9337746E1,3.869612E1,6.0279903E1,2.2886179E1,5.7687195E1,2.0110388E1,2.1827255E1,6.751049E1,2.3808374E1,1.4887749E1],"tree_param":{"num_deleted":"0","num_feature":"172","num_nodes":"15","size_leaf_vector":"1"}},{"base_weights":[2.5196996E-2,-7.4185383E-1,2.522691E-1,-0E0,-8.630473E-1,3.2079633E-2,7.2590154E-1,-1.7220502E-3,-6.901372E-5,4.334993E-4,-6.561354E-4,1.5213902E-3,-0E0],"categories":[],"categories_nodes":[],"categories_segments":[],"categories_sizes":[],"default_left":[0,0,0,0,0,0,0,0,0,0,0,0,0],"id":45,"left_children":[1,3,5,-1,7,9,11,-1,-1,-1,-1,-1,-1],"loss_changes":[5.0415146E1,5.037182E0,2.1778168E1,0E0,2.036747E0,1.4715681E1,5.686348E0,0E0,0E0,0E0,0E0,0E0,0E0],"parents":[2147483647,0,0,1,1,2,2,4,4,5,5,6,6],"right_children":[2,4,6,-1,8,10,12,-1,-1,-1,-1,-1,-1],"split_conditions":[-5.0405823E-2,3.9130434E-1,4.642857E0,-0E0,-2.258534E-2,3.4463238E-2,4.019999E-3,-1.7220502E-3,-6.901372E-5,4.334993E-4,-6.561354E-4,1.5213902E-3,-0E0],"split_indices":[118,42,167,0,114,96,121,0,0,0,0,0,0],"split_type":[0,0,0,0,0,0,0,0,0,0,0,0,0],"sum_hessian":[2.9098984E2,6.1268753E1,2.2972107E2,1.0199279E1,5.1069473E1,1.6421637E2,6.550471E1,4.0361862E1,1.0707609E1,1.1351492E2,5.0701443E1,5.1885296E1,1.361941E1],"tree_param":{"num_deleted":"0","num_feature":"172","num_nodes":"13","size_leaf_vector":"1"}},{"base_weights":[4.4772986E-2,-2.2092374E-1,8.1224394E-1,-6.8472767E-1,-0E0,-0E0,1.7040928E-3,-1.4246849E-3,-5.6062112E-5,-1.6079884E-4,6.6888117E-4],"categories":[],"categories_nodes":[],"categories_segments":[],"categories_sizes":[],"default_left":[0,0,0,0,0,0,0,0,0,0,0],"id":46,"left_children":[1,3,5,7,9,-1,-1,-1,-1,-1,-1],"loss_changes":[6.435248E1,2.5091316E1,9.950623E0,3.6968231E0,6.3461604E0,0E0,0E0,0E0,0E0,0E0,0E0],"parents":[2147483647,0,0,1,1,2,2,3,3,4,4],"right_children":[2,4,6,8,10,-1,-1,-1,-1,-1,-1],"split_conditions":[4.6E0,-2E-1,3.7639897E-2,-1.5571532E-1,1.499278E-1,-0E0,1.7040928E-3,-1.4246849E-3,-5.6062112E-5,-1.6079884E-4,6.6888117E-4],"split_indices":[165,163,103,106,108,0,0,0,0,0,0],"split_type":[0,0,0,0,0,0,0,0,0,0,0],"sum_hessian":[2.9917444E2,2.21023E2,7.815145E1,7.322171E1,1.4780128E2,1.4635153E1,6.3516296E1,5.605946E1,1.7162249E1,1.1505977E2,3.2741516E1],"tree_param":{"num_deleted":"0","num_feature":"172","num_nodes":"11","size_leaf_vector":"1"}},{"base_weights":[-0E0,-5.5463994E-1,3.4683764E-1,-6.785654E-1,3.923583E-4,7.942903E-2,6.658437E-1,-3.3218515E-4,-1.5455208E-3,5.67825E-4,-4.664685E-4,1.364646E-3,-0E0],"categories":[],"categories_nodes":[],"categories_segments":[],"categories_sizes":[],"default_left":[0,0,0,0,0,0,0,0,0,0,0,0,0],"id":47,"left_children":[1,3,5,7,-1,9,11,-1,-1,-1,-1,-1,-1],"loss_changes":[5.9610394E1,1.3459778E1,1.3855888E1,6.588646E0,0E0,1.02860155E1,7.4980164E0,0E0,0E0,0E0,0E0,0E0,0E0],"parents":[2147483647,0,0,1,1,2,2,3,3,5,5,6,6],"right_children":[2,4,6,8,-1,10,12,-1,-1,-1,-1,-1,-1],"split_conditions":[-1.7E0,4.7708333E-1,4.4E0,6.9471315E-2,3.923583E-4,5.3906193E0,2.0608024E-1,-3.3218515E-4,-1.5455208E-3,5.67825E-4,-4.664685E-4,1.364646E-3,-0E0],"split_indices":[166,18,166,56,0,52,34,0,0,0,0,0,0],"split_type":[0,0,0,0,0,0,0,0,0,0,0,0,0],"sum_hessian":[3.040961E2,1.1450971E2,1.8958638E2,1.02827866E2,1.168185E1,1.1121352E2,7.837286E1,3.7325367E1,6.5502495E1,7.073305E1,4.048047E1,6.822533E1,1.0147534E1],"tree_param":{"num_deleted":"0","num_feature":"172","num_nodes":"13","size_leaf_vector":"1"}},{"base_weights":[-3.8799535E-2,-5.538861E-1,2.9478037E-1,-0E0,-6.7419183E-1,-8.798412E-3,6.6489124E-1,-0E0,-1.3741506E-3,-2.7590702E-4,5.2252616E-4,-0E0,1.3746251E-3],"categories":[],"categories_nodes":[],"categories_segments":[],"categories_sizes":[],"default_left":[0,0,0,0,0,0,0,0,0,0,0,0,0],"id":48,"left_children":[1,3,5,-1,7,9,11,-1,-1,-1,-1,-1,-1],"loss_changes":[5.2504326E1,9.309864E0,2.2267075E1,0E0,8.105003E0,4.169932E0,8.240608E0,0E0,0E0,0E0,0E0,0E0,0E0],"parents":[2147483647,0,0,1,1,2,2,4,4,5,5,6,6],"right_children":[2,4,6,-1,8,10,12,-1,-1,-1,-1,-1,-1],"split_conditions":[-1.1069938E-2,-2.4796072E-1,2.25E0,-0E0,-1.3531001E-1,4.2857143E-1,0E0,-0E0,-1.3741506E-3,-2.7590702E-4,5.2252616E-4,-0E0,1.3746251E-3],"split_indices":[119,36,165,0,143,131,160,0,0,0,0,0,0],"split_type":[0,0,0,0,0,0,0,0,0,0,0,0,0],"sum_hessian":[2.9345282E2,1.1824044E2,1.7521239E2,1.9149893E1,9.9090546E1,9.3383E1,8.182938E1,1.4171412E1,8.4919136E1,7.1273766E1,2.210924E1,1.1144889E1,7.0684494E1],"tree_param":{"num_deleted":"0","num_feature":"172","num_nodes":"13","size_leaf_vector":"1"}},{"base_weights":[2.70257E-5,-3.3185104E-1,5.221068E-1,-7.928723E-1,-1.2520267E-1,8.5265297E-1,8.513375E-2,-1.7067217E-3,-0E0,4.1356203E-4,-4.7223375E-4,1.7042721E-3,-0E0,-4.0526417E-4,6.945561E-4],"categories":[],"categories_nodes":[],"categories_segments":[],"categories_sizes":[],"default_left":[0,0,0,0,0,0,0,0,0,0,0,0,0,0,0],"id":49,"left_children":[1,3,5,7,9,11,13,-1,-1,-1,-1,-1,-1,-1,-1],"loss_changes":[5.309453E1,1.3906984E1,1.4219532E1,4.3424187E0,7.40819E0,4.358082E0,6.8944974E0,0E0,0E0,0E0,0E0,0E0,0E0,0E0,0E0],"parents":[2147483647,0,0,1,1,2,2,3,3,4,4,5,5,6,6],"right_children":[2,4,6,8,10,12,14,-1,-1,-1,-1,-1,-1,-1,-1],"split_conditions":[3.3782605E-2,-6.758542E-2,-1.044721E-2,3.125E-1,-4.0301282E-2,1.4541944E-2,6E-1,-1.7067217E-3,-0E0,4.1356203E-4,-4.7223375E-4,1.7042721E-3,-0E0,-4.0526417E-4,6.945561E-4],"split_indices":[103,118,122,135,159,60,45,0,0,0,0,0,0,0,0],"split_type":[0,0,0,0,0,0,0,0,0,0,0,0,0,0,0],"sum_hessian":[2.9546872E2,1.7763245E2,1.1783628E2,4.6845093E1,1.3078735E2,6.083192E1,5.700436E1,3.41467E1,1.2698393E1,3.0316393E1,1.00470955E2,5.018017E1,1.06517515E1,2.3569174E1,3.343519E1],"tree_param":{"num_deleted":"0","num_feature":"172","num_nodes":"15","size_leaf_vector":"1"}},{"base_weights":[-0E0,-4.742624E-1,3.4303004E-1,-0E0,-6.9208866E-1,-0E0,6.68381E-1,6.315155E-4,-2.4971284E-4,-1.4276989E-4,-1.5370197E-3,-2.8917994E-4,3.2001926E-4,1.4580207E-4,1.6533291E-3],"categories":[],"categories_nodes":[],"categories_segments":[],"categories_sizes":[],"default_left":[0,0,0,0,0,0,0,0,0,0,0,0,0,0,0],"id":50,"left_children":[1,3,5,7,9,11,13,-1,-1,-1,-1,-1,-1,-1,-1],"loss_changes":[4.994219E1,1.5366858E1,2.0924059E1,2.8984284E0,7.2559204E0,2.704186E0,1.1503014E1,0E0,0E0,0E0,0E0,0E0,0E0,0E0,0E0],"parents":[2147483647,0,0,1,1,2,2,3,3,4,4,5,5,6,6],"right_children":[2,4,6,8,10,12,14,-1,-1,-1,-1,-1,-1,-1,-1],"split_conditions":[-4.7512855E-3,-3.0361604E-2,3.3333335E-2,4.5895368E-1,5E-1,4.530454E-1,1.883191E-2,6.315155E-4,-2.4971284E-4,-1.4276989E-4,-1.5370197E-3,-2.8917994E-4,3.2001926E-4,1.4580207E-4,1.6533291E-3],"split_indices":[119,159,163,67,95,18,0,0,0,0,0,0,0,0,0],"split_type":[0,0,0,0,0,0,0,0,0,0,0,0,0,0,0],"sum_hessian":[2.9866003E2,1.2620213E2,1.7245792E2,3.681318E1,8.9388954E1,8.291036E1,8.9547554E1,1.441547E1,2.2397707E1,2.636596E1,6.3022995E1,4.9169544E1,3.3740814E1,3.4181488E1,5.5366066E1],"tree_param":{"num_deleted":"0","num_feature":"172","num_nodes":"15","size_leaf_vector":"1"}},{"base_weights":[-3.5711803E-4,-4.0501168E-1,5.924778E-1,-7.2677964E-1,-1.6434073E-2,1.3405007E-1,8.536841E-1,-0E0,-1.4691637E-3,2.3178486E-4,-3.7114552E-4,6.669353E-4,-2.798715E-4,3.623277E-5,1.6811483E-3],"categories":[],"categories_nodes":[],"categories_segments":[],"categories_sizes":[],"default_left":[0,0,0,0,0,0,0,0,0,0,0,0,0,0,0],"id":51,"left_children":[1,3,5,7,9,11,13,-1,-1,-1,-1,-1,-1,-1,-1],"loss_changes":[7.315838E1,2.078741E1,1.0895088E1,8.756439E0,3.0725079E0,4.81349E0,3.2409973E0,0E0,0E0,0E0,0E0,0E0,0E0,0E0,0E0],"parents":[2147483647,0,0,1,1,2,2,3,3,4,4,5,5,6,6],"right_children":[2,4,6,8,10,12,14,-1,-1,-1,-1,-1,-1,-1,-1],"split_conditions":[4.2356607E-2,-1.5E-1,8.3333336E-2,5.0740757E0,5.228373E0,1.19535066E-1,-1.09896764E-1,-0E0,-1.4691637E-3,2.3178486E-4,-3.7114552E-4,6.669353E-4,-2.798715E-4,3.623277E-5,1.6811483E-3],"split_indices":[103,161,161,55,52,150,139,0,0,0,0,0,0,0,0],"split_type":[0,0,0,0,0,0,0,0,0,0,0,0,0,0,0],"sum_hessian":[3.0014166E2,1.8235376E2,1.17787895E2,9.3394875E1,8.895888E1,4.932126E1,6.846664E1,1.2191838E1,8.120303E1,4.172899E1,4.7229893E1,3.221483E1,1.7106432E1,1.1876939E1,5.6589703E1],"tree_param":{"num_deleted":"0","num_feature":"172","num_nodes":"15","size_leaf_vector":"1"}},{"base_weights":[-0E0,-3.779611E-1,5.271664E-1,3.6493123E-2,-5.3747314E-1,-0E0,8.173362E-1,-5.6799466E-4,5.725107E-4,-0E0,-1.1901924E-3,-4.728448E-4,5.241545E-4,1.674795E-3,8.994202E-5],"categories":[],"categories_nodes":[],"categories_segments":[],"categories_sizes":[],"default_left":[0,0,0,0,0,0,0,0,0,0,0,0,0,0,0],"id":52,"left_children":[1,3,5,7,9,11,13,-1,-1,-1,-1,-1,-1,-1,-1],"loss_changes":[5.9792953E1,1.305776E1,1.7370377E1,5.188694E0,8.572121E0,4.5799866E0,5.0453568E0,0E0,0E0,0E0,0E0,0E0,0E0,0E0,0E0],"parents":[2147483647,0,0,1,1,2,2,3,3,4,4,5,5,6,6],"right_children":[2,4,6,8,10,12,14,-1,-1,-1,-1,-1,-1,-1,-1],"split_conditions":[8.181818E-1,-8.8528395E-3,1.9374108E-2,-1.7928196E-1,3.9473686E-1,7.777778E-2,1.9348785E-2,-5.6799466E-4,5.725107E-4,-0E0,-1.1901924E-3,-4.728448E-4,5.241545E-4,1.674795E-3,8.994202E-5],"split_indices":[167,122,118,87,43,162,50,0,0,0,0,0,0,0,0],"split_type":[0,0,0,0,0,0,0,0,0,0,0,0,0,0,0],"sum_hessian":[2.911963E2,1.679612E2,1.232351E2,4.1773197E1,1.26187996E2,4.812035E1,7.5114746E1,1.3435329E1,2.833787E1,3.0572805E1,9.561519E1,2.1104801E1,2.701555E1,5.9025307E1,1.6089443E1],"tree_param":{"num_deleted":"0","num_feature":"172","num_nodes":"15","size_leaf_vector":"1"}},{"base_weights":[1.3634262E-2,-3.541743E-1,5.089865E-1,1.0330412E-1,-5.3656644E-1,1.1657954E-1,8.7149304E-1,-1.1422041E-4,6.4234383E-4,-1.3999979E-3,-9.442058E-5,-2.083546E-4,7.04568E-4,1.8802552E-3,3.7573243E-4],"categories":[],"categories_nodes":[],"categories_segments":[],"categories_sizes":[],"default_left":[0,0,0,0,0,0,0,0,0,0,0,0,0,0,0],"id":53,"left_children":[1,3,5,7,9,11,13,-1,-1,-1,-1,-1,-1,-1,-1],"loss_changes":[5.5932453E1,1.587874E1,1.5368313E1,3.1591163E0,1.3382816E1,6.017482E0,3.5860977E0,0E0,0E0,0E0,0E0,0E0,0E0,0E0,0E0],"parents":[2147483647,0,0,1,1,2,2,3,3,4,4,5,5,6,6],"right_children":[2,4,6,8,10,12,14,-1,-1,-1,-1,-1,-1,-1,-1],"split_conditions":[9.963347E-3,-2.9300932E-2,4.3333335E0,5.719284E-2,-2.420415E-2,-9.982924E-2,-5.0180466E-3,-1.1422041E-4,6.4234383E-4,-1.3999979E-3,-9.442058E-5,-2.083546E-4,7.04568E-4,1.8802552E-3,3.7573243E-4],"split_indices":[118,158,164,9,118,86,123,0,0,0,0,0,0,0,0],"split_type":[0,0,0,0,0,0,0,0,0,0,0,0,0,0,0],"sum_hessian":[2.968799E2,1.6718976E2,1.2969016E2,4.3003544E1,1.2418622E2,6.894687E1,6.074328E1,2.0398743E1,2.2604801E1,7.423491E1,4.9951313E1,3.27557E1,3.6191174E1,4.0705936E1,2.0037344E1],"tree_param":{"num_deleted":"0","num_feature":"172","num_nodes":"15","size_leaf_vector":"1"}},{"base_weights":[-0E0,-4.3066126E-1,2.828299E-1,-0E0,-5.367798E-1,5.066208E-1,-7.93923E-2,-1.0881448E-3,-0E0,-0E0,1.0997811E-3,-9.138788E-4,2.8583923E-4],"categories":[],"categories_nodes":[],"categories_segments":[],"categories_sizes":[],"default_left":[0,0,0,0,0,0,0,0,0,0,0,0,0],"id":54,"left_children":[1,3,5,-1,7,9,11,-1,-1,-1,-1,-1,-1],"loss_changes":[3.7838238E1,7.1551456E0,1.6685646E1,0E0,6.0675163E0,8.207602E0,8.924223E0,0E0,0E0,0E0,0E0,0E0,0E0],"parents":[2147483647,0,0,1,1,2,2,4,4,5,5,6,6],"right_children":[2,4,6,-1,8,10,12,-1,-1,-1,-1,-1,-1],"split_conditions":[-1.6666666E0,3.9647895E-1,4.3694142E-1,-0E0,2.1615866E-1,3.666967E-1,2.726198E-2,-1.0881448E-3,-0E0,-0E0,1.0997811E-3,-9.138788E-4,2.8583923E-4],"split_indices":[167,42,67,0,8,17,100,0,0,0,0,0,0],"split_type":[0,0,0,0,0,0,0,0,0,0,0,0,0],"sum_hessian":[3.0286133E2,1.1976867E2,1.8309267E2,1.9155207E1,1.00613464E2,1.1784179E2,6.525088E1,8.941494E1,1.1198519E1,2.2110413E1,9.573138E1,2.634635E1,3.8904526E1],"tree_param":{"num_deleted":"0","num_feature":"172","num_nodes":"13","size_leaf_vector":"1"}},{"base_weights":[-3.6254343E-2,-4.081358E-1,4.578031E-1,-8.158833E-1,-1.9587104E-1,7.4402714E-1,1.4675759E-2,-0E0,-1.8530963E-3,-6.298776E-5,-1.0145955E-3,-0E0,1.6085322E-3,8.5508375E-4,-2.4515533E-4],"categories":[],"categories_nodes":[],"categories_segments":[],"categories_sizes":[],"default_left":[0,0,0,0,0,0,0,0,0,0,0,0,0,0,0],"id":55,"left_children":[1,3,5,7,9,11,13,-1,-1,-1,-1,-1,-1,-1,-1],"loss_changes":[5.5570133E1,1.1392761E1,1.3539507E1,1.1379425E1,5.675352E0,6.8284454E0,5.6581554E0,0E0,0E0,0E0,0E0,0E0,0E0,0E0,0E0],"parents":[2147483647,0,0,1,1,2,2,3,3,4,4,5,5,6,6],"right_children":[2,4,6,8,10,12,14,-1,-1,-1,-1,-1,-1,-1,-1],"split_conditions":[8.035714E-1,-5.904761E-2,-8.587369E-3,-3.8610753E-2,1.3121206E-1,-1.5689549E-1,-6.568577E-1,-0E0,-1.8530963E-3,-6.298776E-5,-1.0145955E-3,-0E0,1.6085322E-3,8.5508375E-4,-2.4515533E-4],"split_indices":[166,118,123,159,154,12,144,0,0,0,0,0,0,0,0],"split_type":[0,0,0,0,0,0,0,0,0,0,0,0,0,0,0],"sum_hessian":[2.9590128E2,1.7296605E2,1.2293524E2,5.0353928E1,1.22612114E2,6.8687805E1,5.4247433E1,1.1955305E1,3.8398624E1,9.548873E1,2.7123388E1,1.706039E1,5.162742E1,1.6584158E1,3.7663273E1],"tree_param":{"num_deleted":"0","num_feature":"172","num_nodes":"15","size_leaf_vector":"1"}},{"base_weights":[4.91672E-3,-3.7150344E-1,5.1624614E-1,-8.3618754E-1,-1.455106E-1,-0E0,7.60372E-1,-1.7510036E-3,-0E0,1.2320519E-4,-6.71139E-4,4.880677E-4,-1.1295121E-3,1.6101747E-3,-0E0],"categories":[],"categories_nodes":[],"categories_segments":[],"categories_sizes":[],"default_left":[0,0,0,0,0,0,0,0,0,0,0,0,0,0,0],"id":56,"left_children":[1,3,5,7,9,11,13,-1,-1,-1,-1,-1,-1,-1,-1],"loss_changes":[6.0222763E1,1.4735357E1,1.7630608E1,5.553982E0,7.6748524E0,9.276816E0,1.0054592E1,0E0,0E0,0E0,0E0,0E0,0E0,0E0,0E0],"parents":[2147483647,0,0,1,1,2,2,3,3,4,4,5,5,6,6],"right_children":[2,4,6,8,10,12,14,-1,-1,-1,-1,-1,-1,-1,-1],"split_conditions":[8.035714E-1,-5.904761E-2,1.3568118E-2,3.8608726E-2,4.2904338E-1,3.823251E-2,1.6015649E-2,-1.7510036E-3,-0E0,1.2320519E-4,-6.71139E-4,4.880677E-4,-1.1295121E-3,1.6101747E-3,-0E0],"split_indices":[166,118,118,122,43,158,120,0,0,0,0,0,0,0,0],"split_type":[0,0,0,0,0,0,0,0,0,0,0,0,0,0,0],"sum_hessian":[3.0306744E2,1.7146034E2,1.3160712E2,4.8112255E1,1.2334808E2,4.243515E1,8.917197E1,3.789471E1,1.0217542E1,5.891626E1,6.443182E1,3.0270102E1,1.216505E1,7.1348816E1,1.782315E1],"tree_param":{"num_deleted":"0","num_feature":"172","num_nodes":"15","size_leaf_vector":"1"}},{"base_weights":[5.533789E-3,-4.5215952E-1,3.6334574E-1,-0E0,-5.951997E-1,-0E0,6.9308025E-1,-5.0596136E-4,2.3302405E-4,-1.1778636E-3,-0E0,-1.1907213E-4,7.231634E-4,-0E0,1.3595485E-3],"categories":[],"categories_nodes":[],"categories_segments":[],"categories_sizes":[],"default_left":[0,0,0,0,0,0,0,0,0,0,0,0,0,0,0],"id":57,"left_children":[1,3,5,7,9,11,13,-1,-1,-1,-1,-1,-1,-1,-1],"loss_changes":[4.9412838E1,7.633814E0,1.8970724E1,1.7518849E0,4.8901215E0,3.614631E0,4.802887E0,0E0,0E0,0E0,0E0,0E0,0E0,0E0,0E0],"parents":[2147483647,0,0,1,1,2,2,3,3,4,4,5,5,6,6],"right_children":[2,4,6,8,10,12,14,-1,-1,-1,-1,-1,-1,-1,-1],"split_conditions":[-4.7512855E-3,-3.7763946E-2,2.2E0,-2.0705932E-1,2.7683777E-1,1.9444445E-1,-1.0147492E-2,-5.0596136E-4,2.3302405E-4,-1.1778636E-3,-0E0,-1.1907213E-4,7.231634E-4,-0E0,1.3595485E-3],"split_indices":[119,158,165,140,8,162,116,0,0,0,0,0,0,0,0],"split_type":[0,0,0,0,0,0,0,0,0,0,0,0,0,0,0],"sum_hessian":[2.9611145E2,1.2548707E2,1.706244E2,3.3078075E1,9.240899E1,8.69117E1,8.37127E1,1.1931561E1,2.1146515E1,8.196107E1,1.0447921E1,7.154341E1,1.5368291E1,1.0146869E1,7.356583E1],"tree_param":{"num_deleted":"0","num_feature":"172","num_nodes":"15","size_leaf_vector":"1"}},{"base_weights":[-0E0,-2.1945487E-1,6.428943E-1,-5.088815E-1,-0E0,-0E0,8.236822E-1,-1.3939458E-3,-1.8852961E-4,7.043774E-4,-2.9583264E-4,1.6498397E-3,-0E0],"categories":[],"categories_nodes":[],"categories_segments":[],"categories_sizes":[],"default_left":[0,0,0,0,0,0,0,0,0,0,0,0,0],"id":58,"left_children":[1,3,5,7,9,-1,11,-1,-1,-1,-1,-1,-1],"loss_changes":[4.297309E1,1.5304199E1,9.120735E0,8.462248E0,9.491219E0,0E0,3.9187126E0,0E0,0E0,0E0,0E0,0E0,0E0],"parents":[2147483647,0,0,1,1,2,2,3,3,4,4,6,6],"right_children":[2,4,6,8,10,-1,12,-1,-1,-1,-1,-1,-1],"split_conditions":[4.6E0,0E0,1.3568118E-2,-3.233699E-2,-9.849086E-3,-0E0,1.0494082E-1,-1.3939458E-3,-1.8852961E-4,7.043774E-4,-2.9583264E-4,1.6498397E-3,-0E0],"split_indices":[166,161,118,118,120,0,152,0,0,0,0,0,0],"split_type":[0,0,0,0,0,0,0,0,0,0,0,0,0],"sum_hessian":[2.9712622E2,2.2328886E2,7.383735E1,9.7623695E1,1.2566516E2,1.6853075E1,5.6984276E1,4.987186E1,4.775184E1,3.8708504E1,8.695666E1,4.6860367E1,1.0123909E1],"tree_param":{"num_deleted":"0","num_feature":"172","num_nodes":"13","size_leaf_vector":"1"}},{"base_weights":[-0E0,-5.1073354E-1,3.962692E-1,-0E0,-6.3286734E-1,8.0778405E-2,7.09163E-1,-2.8103826E-4,6.0611154E-4,-0E0,-1.215705E-3,-9.758276E-5,9.987765E-4,1.4558954E-3,-0E0],"categories":[],"categories_nodes":[],"categories_segments":[],"categories_sizes":[],"default_left":[0,0,0,0,0,0,0,0,0,0,0,0,0,0,0],"id":59,"left_children":[1,3,5,7,9,11,13,-1,-1,-1,-1,-1,-1,-1,-1],"loss_changes":[6.467708E1,1.0389614E1,1.4680485E1,2.1773005E0,4.7031746E0,8.344553E0,6.313938E0,0E0,0E0,0E0,0E0,0E0,0E0,0E0,0E0],"parents":[2147483647,0,0,1,1,2,2,3,3,4,4,5,5,6,6],"right_children":[2,4,6,8,10,12,14,-1,-1,-1,-1,-1,-1,-1,-1],"split_conditions":[-4.7512855E-3,-1.3531001E-1,3E0,4.475911E-4,-2.2063712E-2,3.809524E-1,5.625E-1,-2.8103826E-4,6.0611154E-4,-0E0,-1.215705E-3,-9.758276E-5,9.987765E-4,1.4558954E-3,-0E0],"split_indices":[119,143,164,99,123,130,95,0,0,0,0,0,0,0,0],"split_type":[0,0,0,0,0,0,0,0,0,0,0,0,0,0,0],"sum_hessian":[3.110275E2,1.376999E2,1.7332759E2,2.336511E1,1.1433479E2,9.3817696E1,7.950989E1,1.2428482E1,1.0936628E1,1.0694424E1,1.03640366E2,7.073851E1,2.3079187E1,6.56498E1,1.3860083E1],"tree_param":{"num_deleted":"0","num_feature":"172","num_nodes":"15","size_leaf_vector":"1"}},{"base_weights":[-0E0,-3.6680487E-1,4.605515E-1,-8.392835E-2,-6.8085057E-1,5.4989308E-2,8.497121E-1,6.521683E-4,-4.4402631E-4,-0E0,-1.5591778E-3,4.3242372E-4,-4.664324E-4,8.2390245E-5,1.7310431E-3],"categories":[],"categories_nodes":[],"categories_segments":[],"categories_sizes":[],"default_left":[0,0,0,0,0,0,0,0,0,0,0,0,0,0,0],"id":60,"left_children":[1,3,5,7,9,11,13,-1,-1,-1,-1,-1,-1,-1,-1],"loss_changes":[5.009671E1,1.2318394E1,1.720978E1,7.6420507E0,8.649876E0,4.5914507E0,3.389614E0,0E0,0E0,0E0,0E0,0E0,0E0,0E0,0E0],"parents":[2147483647,0,0,1,1,2,2,3,3,4,4,5,5,6,6],"right_children":[2,4,6,8,10,12,14,-1,-1,-1,-1,-1,-1,-1,-1],"split_conditions":[6.4690053E-3,4E-1,4.5333333E0,-1.25575075E-2,4.4587258E-1,4.3543436E-2,5.4116144E0,6.521683E-4,-4.4402631E-4,-0E0,-1.5591778E-3,4.3242372E-4,-4.664324E-4,8.2390245E-5,1.7310431E-3],"split_indices":[118,171,167,122,66,96,7,0,0,0,0,0,0,0,0],"split_type":[0,0,0,0,0,0,0,0,0,0,0,0,0,0,0],"sum_hessian":[2.90675E2,1.6549121E2,1.2518379E2,9.500087E1,7.049034E1,6.747406E1,5.770973E1,1.9371223E1,7.5629654E1,2.0149233E1,5.0341106E1,4.911198E1,1.8362082E1,1.2831634E1,4.4878094E1],"tree_param":{"num_deleted":"0","num_feature":"172","num_nodes":"15","size_leaf_vector":"1"}},{"base_weights":[2.407243E-3,-4.050994E-1,2.8375643E-1,-0E0,-7.033706E-1,-1.4775987E-3,6.495681E-1,3.101596E-4,-8.2691427E-4,-0E0,-1.4877209E-3,1.4107345E-4,-1.3240929E-3,1.7026417E-3,1.9812351E-4],"categories":[],"categories_nodes":[],"categories_segments":[],"categories_sizes":[],"default_left":[0,0,0,0,0,0,0,0,0,0,0,0,0,0,0],"id":61,"left_children":[1,3,5,7,9,11,13,-1,-1,-1,-1,-1,-1,-1,-1],"loss_changes":[3.4744278E1,1.31221695E1,2.1534376E1,5.757081E0,5.027214E0,8.85814E0,1.1117199E1,0E0,0E0,0E0,0E0,0E0,0E0,0E0,0E0],"parents":[2147483647,0,0,1,1,2,2,3,3,4,4,5,5,6,6],"right_children":[2,4,6,8,10,12,14,-1,-1,-1,-1,-1,-1,-1,-1],"split_conditions":[-3.5714287E-2,5.579482E0,5.5007126E-2,3.8868394E-2,-2E0,1.2831417E-1,5.3256817E0,3.101596E-4,-8.2691427E-4,-0E0,-1.4877209E-3,1.4107345E-4,-1.3240929E-3,1.7026417E-3,1.9812351E-4],"split_indices":[162,55,0,96,169,155,55,0,0,0,0,0,0,0,0],"split_type":[0,0,0,0,0,0,0,0,0,0,0,0,0,0,0],"sum_hessian":[2.9911826E2,1.1676088E2,1.8235738E2,5.397056E1,6.279032E1,9.950569E1,8.2851685E1,3.7797768E1,1.617279E1,1.4194345E1,4.8595978E1,8.882217E1,1.0683524E1,4.590823E1,3.6943455E1],"tree_param":{"num_deleted":"0","num_feature":"172","num_nodes":"15","size_leaf_vector":"1"}},{"base_weights":[-0E0,-2.625165E-1,7.6999295E-1,-5.340582E-1,-0E0,8.9668626E-1,-0E0,-0E0,-1.1367077E-3,-2.6292383E-4,4.5619125E-4,1.9265915E-3,4.5476432E-4],"categories":[],"categories_nodes":[],"categories_segments":[],"categories_sizes":[],"default_left":[0,0,0,0,0,0,0,0,0,0,0,0,0],"id":62,"left_children":[1,3,5,7,9,11,-1,-1,-1,-1,-1,-1,-1],"loss_changes":[6.1173958E1,1.5366585E1,5.6832047E0,7.2785263E0,4.649198E0,2.9298058E0,0E0,0E0,0E0,0E0,0E0,0E0,0E0],"parents":[2147483647,0,0,1,1,2,2,3,3,4,4,5,5],"right_children":[2,4,6,8,10,12,-1,-1,-1,-1,-1,-1,-1],"split_conditions":[4.5333333E0,-5.357143E-2,1.3221788E-1,-1.8590344E-2,6.884043E-2,-7.456829E-3,-0E0,-0E0,-1.1367077E-3,-2.6292383E-4,4.5619125E-4,1.9265915E-3,4.5476432E-4],"split_indices":[167,162,153,122,108,122,0,0,0,0,0,0,0],"split_type":[0,0,0,0,0,0,0,0,0,0,0,0,0],"sum_hessian":[2.89368E2,2.1533363E2,7.4034386E1,1.0310975E2,1.12223885E2,6.0691605E1,1.3342787E1,1.7655752E1,8.5453995E1,7.3302925E1,3.892096E1,3.9922085E1,2.0769518E1],"tree_param":{"num_deleted":"0","num_feature":"172","num_nodes":"13","size_leaf_vector":"1"}},{"base_weights":[-1.0614503E-2,-3.880672E-1,5.673214E-1,-0E0,-5.531009E-1,-5.316566E-3,7.52329E-1,9.765779E-4,-4.2746827E-4,-1.2863828E-3,-2.2714879E-4,5.5700913E-4,-7.773562E-4,1.8096482E-3,5.391518E-4],"categories":[],"categories_nodes":[],"categories_segments":[],"categories_sizes":[],"default_left":[0,0,0,0,0,0,0,0,0,0,0,0,0,0,0],"id":63,"left_children":[1,3,5,7,9,11,13,-1,-1,-1,-1,-1,-1,-1,-1],"loss_changes":[6.556573E1,1.3432995E1,1.4789761E1,8.81052E0,7.347828E0,4.8934393E0,6.041542E0,0E0,0E0,0E0,0E0,0E0,0E0,0E0,0E0],"parents":[2147483647,0,0,1,1,2,2,3,3,4,4,5,5,6,6],"right_children":[2,4,6,8,10,12,14,-1,-1,-1,-1,-1,-1,-1,-1],"split_conditions":[1.8E0,-7.671364E-3,-1.2880099E-2,-1.5789121E-2,-4.5466527E-2,4.4910932E-1,-9.388502E-3,9.765779E-4,-4.2746827E-4,-1.2863828E-3,-2.2714879E-4,5.5700913E-4,-7.773562E-4,1.8096482E-3,5.391518E-4],"split_indices":[165,122,117,154,14,67,123,0,0,0,0,0,0,0,0],"split_type":[0,0,0,0,0,0,0,0,0,0,0,0,0,0,0],"sum_hessian":[2.9584055E2,1.8311494E2,1.1272562E2,5.093449E1,1.3218045E2,2.408595E1,8.863966E1,1.7370916E1,3.3563576E1,8.493714E1,4.7243305E1,1.0167294E1,1.3918657E1,4.6584522E1,4.2055145E1],"tree_param":{"num_deleted":"0","num_feature":"172","num_nodes":"15","size_leaf_vector":"1"}},{"base_weights":[1.915259E-2,-2.2569788E-1,6.964788E-1,-5.3751445E-1,2.80179E-3,-0E0,8.306435E-1,-0E0,-1.1887657E-3,6.186048E-4,-2.2394372E-4,1.785311E-3,4.7983363E-4],"categories":[],"categories_nodes":[],"categories_segments":[],"categories_sizes":[],"default_left":[0,0,0,0,0,0,0,0,0,0,0,0,0],"id":64,"left_children":[1,3,5,7,9,-1,11,-1,-1,-1,-1,-1,-1],"loss_changes":[5.129671E1,1.7217583E1,9.524773E0,8.164223E0,6.5598574E0,0E0,2.4141922E0,0E0,0E0,0E0,0E0,0E0,0E0],"parents":[2147483647,0,0,1,1,2,2,3,3,4,4,6,6],"right_children":[2,4,6,8,10,-1,12,-1,-1,-1,-1,-1,-1],"split_conditions":[4.6E0,-8.076394E-2,4.0740785E-1,-4.948232E-2,-1.5100891E-2,-0E0,-7.1075745E-3,-0E0,-1.1887657E-3,6.186048E-4,-2.2394372E-4,1.785311E-3,4.7983363E-4],"split_indices":[165,110,19,158,121,0,123,0,0,0,0,0,0],"split_type":[0,0,0,0,0,0,0,0,0,0,0,0,0],"sum_hessian":[2.9284628E2,2.133524E2,7.949387E1,9.416822E1,1.1918419E2,1.0895872E1,6.8598E1,1.9162853E1,7.500536E1,3.74433E1,8.174089E1,4.4364674E1,2.4233328E1],"tree_param":{"num_deleted":"0","num_feature":"172","num_nodes":"13","size_leaf_vector":"1"}},{"base_weights":[-1.3205178E-2,-3.985259E-1,4.1502354E-1,-1.1249749E-1,-6.403878E-1,-6.0012646E-2,6.8101335E-1,-7.614123E-4,1.6334504E-4,-1.7564489E-3,-5.137435E-4,3.6636402E-4,-4.767325E-4,1.4651037E-3,-0E0],"categories":[],"categories_nodes":[],"categories_segments":[],"categories_sizes":[],"default_left":[0,0,0,0,0,0,0,0,0,0,0,0,0,0,0],"id":65,"left_children":[1,3,5,7,9,11,13,-1,-1,-1,-1,-1,-1,-1,-1],"loss_changes":[5.0263844E1,8.6510315E0,1.9929655E1,6.9989204E0,5.044937E0,3.2538006E0,8.956303E0,0E0,0E0,0E0,0E0,0E0,0E0,0E0,0E0],"parents":[2147483647,0,0,1,1,2,2,3,3,4,4,5,5,6,6],"right_children":[2,4,6,8,10,12,14,-1,-1,-1,-1,-1,-1,-1,-1],"split_conditions":[6.4690053E-3,6.899563E-3,8.035714E-1,-6.653085E-2,-5.155626E-2,-8.191801E-2,2.52779E-2,-7.614123E-4,1.6334504E-4,-1.7564489E-3,-5.137435E-4,3.6636402E-4,-4.767325E-4,1.4651037E-3,-0E0],"split_indices":[118,153,166,100,118,72,51,0,0,0,0,0,0,0,0],"split_type":[0,0,0,0,0,0,0,0,0,0,0,0,0,0,0],"sum_hessian":[2.975635E2,1.6078157E2,1.3678194E2,8.2332375E1,7.8449196E1,4.5711E1,9.107094E1,3.6615128E1,4.5717243E1,3.018139E1,4.8267803E1,1.3413545E1,3.229745E1,7.15324E1,1.9538542E1],"tree_param":{"num_deleted":"0","num_feature":"172","num_nodes":"15","size_leaf_vector":"1"}},{"base_weights":[-0E0,-4.0957776E-1,4.832643E-1,-1.8284244E-2,-6.53312E-1,-0E0,8.287186E-1,1.5475685E-4,-7.958383E-4,-1.4004582E-3,-1.5236074E-4,6.400978E-4,-1.7273023E-4,1.8658922E-3,2.9170988E-4],"categories":[],"categories_nodes":[],"categories_segments":[],"categories_sizes":[],"default_left":[0,0,0,0,0,0,0,0,0,0,0,0,0,0,0],"id":66,"left_children":[1,3,5,7,9,11,13,-1,-1,-1,-1,-1,-1,-1,-1],"loss_changes":[6.020071E1,1.3566528E1,2.2305527E1,4.7386656E0,4.9701004E0,2.682884E0,7.9206047E0,0E0,0E0,0E0,0E0,0E0,0E0,0E0,0E0],"parents":[2147483647,0,0,1,1,2,2,3,3,4,4,5,5,6,6],"right_children":[2,4,6,8,10,12,14,-1,-1,-1,-1,-1,-1,-1,-1],"split_conditions":[6.033974E-3,4.516408E-1,2.25E0,9.3373515E-2,2.7272728E-1,-2.746988E-2,-3.978023E-3,1.5475685E-4,-7.958383E-4,-1.4004582E-3,-1.5236074E-4,6.400978E-4,-1.7273023E-4,1.8658922E-3,2.9170988E-4],"split_indices":[118,66,165,153,135,121,122,0,0,0,0,0,0,0,0],"split_type":[0,0,0,0,0,0,0,0,0,0,0,0,0,0,0],"sum_hessian":[2.9708298E2,1.6204384E2,1.3503912E2,6.886423E1,9.317962E1,5.9072273E1,7.596684E1,5.1693974E1,1.7170254E1,6.804298E1,2.5136642E1,1.2648579E1,4.6423695E1,5.049876E1,2.546808E1],"tree_param":{"num_deleted":"0","num_feature":"172","num_nodes":"15","size_leaf_vector":"1"}},{"base_weights":[2.9076844E-2,-3.546003E-1,6.578347E-1,-8.1096005E-1,-1.0482239E-1,8.1854224E-1,-0E0,-0E0,-1.6916157E-3,-8.2162133E-4,-0E0,4.84078E-5,1.6665424E-3,-3.5274166E-4,6.006448E-4],"categories":[],"categories_nodes":[],"categories_segments":[],"categories_sizes":[],"default_left":[0,0,0,0,0,0,0,0,0,0,0,0,0,0,0],"id":67,"left_children":[1,3,5,7,9,11,13,-1,-1,-1,-1,-1,-1,-1,-1],"loss_changes":[7.242543E1,1.73076E1,1.0601631E1,6.880089E0,6.0375056E0,6.3680763E0,2.5268278E0,0E0,0E0,0E0,0E0,0E0,0E0,0E0,0E0],"parents":[2147483647,0,0,1,1,2,2,3,3,4,4,5,5,6,6],"right_children":[2,4,6,8,10,12,14,-1,-1,-1,-1,-1,-1,-1,-1],"split_conditions":[1.748373E-2,-5.904761E-2,5.625E-1,-2.3738429E-2,-1.5995537E-1,5.0549192E0,6.363636E-1,-0E0,-1.6916157E-3,-8.2162133E-4,-0E0,4.84078E-5,1.6665424E-3,-3.5274166E-4,6.006448E-4],"split_indices":[118,118,95,48,87,6,47,0,0,0,0,0,0,0,0],"split_type":[0,0,0,0,0,0,0,0,0,0,0,0,0,0,0],"sum_hessian":[2.888602E2,1.7716194E2,1.1169827E2,5.5106903E1,1.2205503E2,8.6661026E1,2.5037252E1,1.0216407E1,4.4890495E1,2.985548E1,9.2199554E1,1.6847275E1,6.981375E1,1.3157863E1,1.187939E1],"tree_param":{"num_deleted":"0","num_feature":"172","num_nodes":"15","size_leaf_vector":"1"}},